{"learner":{"attributes":{"best_iteration":"49","best_ntree_limit":"50"},"feature_names":["hotspot_flag","driver_gene_flag","tmb","tumor_type_encoded"],"feature_types":["int","int","float","int"],"gradient_booster":{"model":{"gbtree_model_param":{"num_parallel_tree":"1","num_trees":"50","size_leaf_vector":"0"},"tree_info":[0,0,0,0,0,0,0,0,0,0,0,0,0,0,0,0,0,0,0,0,0,0,0,0,0,0,0,0,0,0,0,0,0,0,0,0,0,0,0,0,0,0,0,0,0,0,0,0,0,0],"trees":[{"base_weights":[2.05625E1,2E0,2.1666666E1,1.5666667E1,2.6285715E1],"categories":[],"categories_nodes":[],"categories_segments":[],"categories_sizes":[],"default_left":[1,0,1,0,0],"id":0,"left_children":[1,-1,3,-1,-1],"loss_changes":[2.84604E2,0E0,3.9047852E0,0E0,0E0],"parents":[2147483647,0,0,2,2],"right_children":[2,-1,4,-1,-1],"split_conditions":[3.0500002E0,6E-1,1.055E1,4.7000003E0,7.885715E0],"split_indices":[2,0,2,0,0],"split_type":[0,0,0,0,0],"sum_hessian":[1.5E1,1E0,1.4E1,8E0,6E0],"tree_param":{"num_deleted":"0","num_feature":"4","num_nodes":"5","size_leaf_vector":"0"}},{"base_weights":[1.5217859E1,1.201837E1,2.5076193E1,1.7000008E0,1.2681321E1],"categories":[],"categories_nodes":[],"categories_segments":[],"categories_sizes":[],"default_left":[1,1,0,0,0],"id":1,"left_children":[1,3,-1,-1,-1],"loss_changes":[2.0329126E2,7.420996E1,0E0,0E0,0E0],"parents":[2147483647,0,0,1,1],"right_children":[2,4,-1,-1,-1],"split_conditions":[5E-1,3.0500002E0,7.522858E0,5.100002E-1,3.8043964E0],"split_indices":[0,2,0,0,0],"split_type":[0,0,0,0,0],"sum_hessian":[1.5E1,1.3E1,2E0,1E0,1.2E1],"tree_param":{"num_deleted":"0","num_feature":"4","num_nodes":"5","size_leaf_vector":"0"}},{"base_weights":[1.1392329E1,8.721029E0,2.0060953E1,9.49121E0,2.7332966E0],"categories":[],"categories_nodes":[],"categories_segments":[],"categories_sizes":[],"default_left":[1,1,0,0,0],"id":2,"left_children":[1,3,-1,-1,-1],"loss_changes":[1.9555151E2,3.8620605E1,0E0,0E0,0E0],"parents":[2147483647,0,0,1,1],"right_children":[2,4,-1,-1,-1],"split_conditions":[5E-1,9.5E0,6.018286E0,2.847363E0,8.19989E-1],"split_indices":[0,3,0,0,0],"split_type":[0,0,0,0,0],"sum_hessian":[1.5E1,1.3E1,2E0,1.1E1,2E0],"tree_param":{"num_deleted":"0","num_feature":"4","num_nodes":"5","size_leaf_vector":"0"}},{"base_weights":[8.57998E0,6.366671E0,1.6048761E1,7.1750226E0,2.5520372E0],"categories":[],"categories_nodes":[],"categories_segments":[],"categories_sizes":[],"default_left":[1,1,0,0,0],"id":3,"left_children":[1,3,-1,-1,-1],"loss_changes":[1.6231445E2,2.4859009E1,0E0,0E0,0E0],"parents":[2147483647,0,0,1,1],"right_children":[2,4,-1,-1,-1],"split_conditions":[5E-1,8.5E0,4.8146286E0,2.1525068E0,7.6561123E-1],"split_indices":[0,3,0,0,0],"split_type":[0,0,0,0,0],"sum_hessian":[1.5E1,1.3E1,2E0,1E1,3E0],"tree_param":{"num_deleted":"0","num_feature":"4","num_nodes":"5","size_leaf_vector":"0"}},{"base_weights":[6.4892845E0,4.665109E0,1.2839009E1,5.7623396E0,2.7446873E0,6.522007E-1,2.9847348E0],"categories":[],"categories_nodes":[],"categories_segments":[],"categories_sizes":[],"default_left":[1,1,0,0,1,0,0],"id":4,"left_children":[1,3,-1,-1,5,-1,-1],"loss_changes":[1.2543286E2,1.3684235E1,0E0,0E0,1.5694313E0,0E0,0E0],"parents":[2147483647,0,0,1,1,4,4],"right_children":[2,4,-1,-1,6,-1,-1],"split_conditions":[5E-1,5.5E0,3.851703E0,1.728702E0,3.0500002E0,1.9566022E-1,8.954205E-1],"split_indices":[0,3,0,0,2,0,0],"split_type":[0,0,0,0,0,0,0],"sum_hessian":[1.5E1,1.3E1,2E0,7E0,6E0,1E0,5E0],"tree_param":{"num_deleted":"0","num_feature":"4","num_nodes":"7","size_leaf_vector":"0"}},{"base_weights":[4.959468E0,2.413175E0,7.8885336E0,2.919356E0,9.2406464E-1,9.395254E0,2.7478206E0,3.533596E0,1.5752773E0],"categories":[],"categories_nodes":[],"categories_segments":[],"categories_sizes":[],"default_left":[1,1,1,1,0,0,0,0,0],"id":5,"left_children":[1,3,5,7,-1,-1,-1,-1,-1],"loss_changes":[1.00295715E2,4.839924E0,2.8402893E1,2.1271515E-1,0E0,0E0,0E0,0E0,0E0],"parents":[2147483647,0,0,1,1,2,2,3,3],"right_children":[2,4,6,8,-1,-1,-1,-1,-1],"split_conditions":[1.055E1,6.5E0,5.5E0,7.4E0,2.772194E-1,2.8185763E0,8.2434624E-1,1.0600789E0,4.725832E-1],"split_indices":[2,3,3,2,0,0,0,0,0],"split_type":[0,0,0,0,0,0,0,0,0],"sum_hessian":[1.5E1,9E0,6E0,6E0,3E0,4E0,2E0,3E0,3E0],"tree_param":{"num_deleted":"0","num_feature":"4","num_nodes":"9","size_leaf_vector":"0"}},{"base_weights":[3.8124282E0,2.5587406E0,8.392161E0,3.5240173E-1,2.8970969E0,6.4722824E-1,-1.1862564E-1,3.9609287E0,1.5713702E0,8.809654E-1,2.1982548E0,1.0204344E0,1.615448E-1],"categories":[],"categories_nodes":[],"categories_segments":[],"categories_sizes":[],"default_left":[1,1,0,1,1,0,0,0,1,1,0,0,0],"id":6,"left_children":[1,3,-1,5,7,-1,-1,-1,9,11,-1,-1,-1],"loss_changes":[7.039151E1,9.430458E0,0E0,4.933919E-1,1.0700111E1,0E0,0E0,0E0,1.0930424E0,3.3683872E-1,0E0,0E0,0E0],"parents":[2147483647,0,0,1,1,3,3,4,4,8,8,9,9],"right_children":[2,4,-1,6,8,-1,-1,-1,10,12,-1,-1,-1],"split_conditions":[5E-1,5E-1,2.5176485E0,1.08E1,5.5E0,1.9416848E-1,-3.5587694E-2,1.1882787E0,9.4E0,6.2E0,6.5947646E-1,3.0613032E-1,4.846344E-2],"split_indices":[0,3,0,2,3,0,0,0,2,2,0,0,0],"split_type":[0,0,0,0,0,0,0,0,0,0,0,0,0],"sum_hessian":[1.5E1,1.3E1,2E0,2E0,1.1E1,1E0,1E0,5E0,6E0,4E0,2E0,3E0,1E0],"tree_param":{"num_deleted":"0","num_feature":"4","num_nodes":"13","size_leaf_vector":"0"}},{"base_weights":[2.9736116E0,1.2787975E0,4.969973E0,1.7001171E0,5.174545E-1,5.5741286E0,6.725197E-1,7.908373E-1,2.3457844E0,6.202736E-1,5.308914E-2,3.0749264E0,7.048355E0,1.3731384E-1,7.354889E-1,4.167122E0,-1.0083008E-1],"categories":[],"categories_nodes":[],"categories_segments":[],"categories_sizes":[],"default_left":[1,1,1,1,1,1,0,0,0,1,0,1,0,0,0,0,0],"id":7,"left_children":[1,3,5,7,9,11,-1,-1,-1,13,-1,15,-1,-1,-1,-1,-1],"loss_changes":[4.7779785E1,2.3279552E0,1.4425613E1,1.6674194E0,2.0579839E-1,4.331665E-1,0E0,0E0,0E0,1.21584535E-1,0E0,1.4294357E1,0E0,0E0,0E0,0E0,0E0],"parents":[2147483647,0,0,1,1,2,2,3,3,4,4,5,5,9,9,11,11],"right_children":[2,4,6,8,10,12,-1,-1,-1,14,-1,16,-1,-1,-1,-1,-1],"split_conditions":[1.055E1,7.25E0,9E0,5E0,9.700001E0,1.435E1,2.0175591E-1,2.3725119E-1,7.0373535E-1,7.9500003E0,1.5926743E-2,1.3E1,2.1145067E0,4.1194156E-2,2.2064668E-1,1.2501366E0,-3.0249024E-2],"split_indices":[2,2,3,2,2,2,0,0,0,2,0,2,0,0,0,0,0],"split_type":[0,0,0,0,0,0,0,0,0,0,0,0,0,0,0,0,0],"sum_hessian":[1.5E1,9E0,6E0,5E0,4E0,5E0,1E0,3E0,2E0,3E0,1E0,3E0,2E0,1E0,2E0,2E0,1E0],"tree_param":{"num_deleted":"0","num_feature":"4","num_nodes":"17","size_leaf_vector":"0"}},{"base_weights":[2.3787086E0,1.5201997E0,5.5921807E0,1.0566295E0,2.867747E0,4.1649118E-1,1.4543724E0,3.7299805E0,5.7164E-1,6.4502716E-1,-2.7053833E-2,6.128988E-1,1.9322529E0,4.5124054E-2,-8.57048E-2,1.4407158E-1,7.211507E-1],"categories":[],"categories_nodes":[],"categories_segments":[],"categories_sizes":[],"default_left":[1,1,0,1,1,1,1,0,0,0,1,1,0,0,0,0,0],"id":8,"left_children":[1,3,-1,5,7,9,11,-1,-1,-1,13,15,-1,-1,-1,-1,-1],"loss_changes":[3.5639496E1,5.715412E0,0E0,2.4495926E0,3.8071346E0,6.2564635E-1,1.6305914E0,0E0,0E0,0E0,1.6567258E-2,9.910834E-2,0E0,0E0,0E0,0E0,0E0],"parents":[2147483647,0,0,1,1,3,3,4,4,5,5,6,6,10,10,11,11],"right_children":[2,4,-1,6,8,10,12,-1,-1,-1,14,16,-1,-1,-1,-1,-1],"split_conditions":[5E-1,1.435E1,1.6776543E0,4.5E0,1.5950001E1,9.700001E0,5E0,1.1189942E0,1.7149201E-1,1.9350816E-1,1.18E1,3.0500002E0,5.796759E-1,1.3537217E-2,-2.5711441E-2,4.3221474E-2,2.1634522E-1],"split_indices":[0,2,0,3,2,2,2,0,0,0,2,2,0,0,0,0,0],"split_type":[0,0,0,0,0,0,0,0,0,0,0,0,0,0,0,0,0],"sum_hessian":[1.5E1,1.3E1,2E0,1.1E1,2E0,5E0,6E0,1E0,1E0,3E0,2E0,3E0,3E0,1E0,1E0,1E0,2E0],"tree_param":{"num_deleted":"0","num_feature":"4","num_nodes":"17","size_leaf_vector":"0"}},{"base_weights":[1.9143903E0,1.229215E0,4.473745E0,8.2468826E-1,2.437584E0,3.2176462E-1,1.137953E0,3.1704826E0,4.8589325E-1,4.998932E-1,-2.2994995E-2,2.1176338E0,6.2173396E-1,3.835678E-2,-7.284927E-2,1.4475505E-1,8.240347E-1,3.9025116E-1,-1.7311859E-1,1.2246132E-1,1.0170721E0],"categories":[],"categories_nodes":[],"categories_segments":[],"categories_sizes":[],"default_left":[1,1,0,1,1,1,1,0,0,0,1,0,1,0,0,1,1,0,0,0,0],"id":9,"left_children":[1,3,-1,5,7,9,11,-1,-1,-1,13,-1,15,-1,-1,17,19,-1,-1,-1,-1],"loss_changes":[2.255851E1,4.8331985E0,0E0,1.5244265E0,2.75066E0,3.7996423E-1,2.223504E0,0E0,0E0,0E0,1.197021E-2,0E0,4.596758E-1,0E0,0E0,3.0166996E-1,4.1716766E-1,0E0,0E0,0E0,0E0],"parents":[2147483647,0,0,1,1,3,3,4,4,5,5,6,6,10,10,12,12,15,15,16,16],"right_children":[2,4,-1,6,8,10,12,-1,-1,-1,14,-1,16,-1,-1,18,20,-1,-1,-1,-1],"split_conditions":[5E-1,1.435E1,1.3421235E0,4.5E0,1.5950001E1,9.700001E0,5.5E0,9.511448E-1,1.4576799E-1,1.4996797E-1,1.18E1,6.3529015E-1,7.5E0,1.1507034E-2,-2.1854782E-2,5.5E0,3.75E0,1.17075354E-1,-5.193558E-2,3.6738396E-2,3.0512163E-1],"split_indices":[0,2,0,3,2,2,3,0,0,0,2,0,3,0,0,2,2,0,0,0,0],"split_type":[0,0,0,0,0,0,0,0,0,0,0,0,0,0,0,0,0,0,0,0,0],"sum_hessian":[1.5E1,1.3E1,2E0,1.1E1,2E0,5E0,6E0,1E0,1E0,3E0,2E0,1E0,5E0,1E0,1E0,2E0,3E0,1E0,1E0,1E0,2E0],"tree_param":{"num_deleted":"0","num_feature":"4","num_nodes":"21","size_leaf_vector":"0"}},{"base_weights":[1.5663819E0,6.437286E-1,2.660689E0,1.0233444E0,2.2009404E-1,3.2005935E0,8.739522E-1,3.7918663E-1,1.7999878E0,3.2297364E-1,-1.4715195E-1,1.3922806E0,3.942042E0,1.04091644E-1,4.3618774E-1,3.8741493E-1,3.2604218E-2,-6.1920166E-2,2.150341E0],"categories":[],"categories_nodes":[],"categories_segments":[],"categories_sizes":[],"default_left":[1,1,1,1,1,1,0,1,0,1,0,1,0,0,0,0,0,0,0],"id":10,"left_children":[1,3,5,7,9,11,-1,13,-1,15,-1,17,-1,-1,-1,-1,-1,-1,-1],"loss_changes":[1.4441902E1,1.3829517E0,3.9555016E0,1.8188734E0,2.7421886E-1,1.2154236E0,0E0,1.731944E-2,0E0,8.092761E-2,0E0,3.4402661E0,0E0,0E0,0E0,0E0,0E0,0E0,0E0],"parents":[2147483647,0,0,1,1,2,2,3,3,4,4,5,5,7,7,9,9,11,11],"right_children":[2,4,6,8,10,12,-1,14,-1,16,-1,18,-1,-1,-1,-1,-1,-1,-1],"split_conditions":[1.055E1,6.05E0,5.5E0,5E0,5.5E0,1.435E1,2.6218566E-1,3.0500002E0,5.399964E-1,9.700001E0,-4.4145584E-2,5E-1,1.1826127E0,3.1227494E-2,1.3085634E-1,1.1622448E-1,9.781266E-3,-1.857605E-2,6.451023E-1],"split_indices":[2,2,3,2,3,2,0,2,0,2,0,0,0,0,0,0,0,0,0],"split_type":[0,0,0,0,0,0,0,0,0,0,0,0,0,0,0,0,0,0,0],"sum_hessian":[1.5E1,9E0,6E0,4E0,5E0,4E0,2E0,3E0,1E0,4E0,1E0,2E0,2E0,1E0,2E0,3E0,1E0,1E0,1E0],"tree_param":{"num_deleted":"0","num_feature":"4","num_nodes":"19","size_leaf_vector":"0"}},{"base_weights":[1.2749214E0,8.206765E-1,2.969757E0,5.598685E-1,1.5903498E0,1.9185765E-1,7.9532516E-1,2.1036072E0,2.8191757E-1,3.0024529E-1,-1.6611734E-2,1.5299911E0,4.178823E-1,2.7713776E-2,-5.263138E-2,1.9472809E-1,7.668266E-1,3.0595016E-1,-1.2508011E-1],"categories":[],"categories_nodes":[],"categories_segments":[],"categories_sizes":[],"default_left":[1,1,0,1,1,1,1,0,0,0,1,0,1,0,0,1,0,0,0],"id":11,"left_children":[1,3,-1,5,7,9,11,-1,-1,-1,13,-1,15,-1,-1,17,-1,-1,-1],"loss_changes":[9.880718E0,1.9199305E0,0E0,8.87218E-1,1.4216437E0,1.4056061E-1,1.3017054E0,0E0,0E0,0E0,6.2483815E-3,0E0,3.1788754E-1,0E0,0E0,2.1611694E-1,0E0,0E0,0E0],"parents":[2147483647,0,0,1,1,3,3,4,4,5,5,6,6,10,10,12,12,15,15],"right_children":[2,4,-1,6,8,10,12,-1,-1,-1,14,-1,16,-1,-1,18,-1,-1,-1],"split_conditions":[5E-1,1.435E1,8.9092714E-1,4.5E0,1.5950001E1,9.700001E0,5.5E0,6.310822E-1,8.457527E-2,9.0073586E-2,1.18E1,4.5899737E-1,9.4E0,8.314133E-3,-1.5789414E-2,6.2E0,2.30048E-1,9.178505E-2,-3.7524033E-2],"split_indices":[0,2,0,3,2,2,3,0,0,0,2,0,2,0,0,2,0,0,0],"split_type":[0,0,0,0,0,0,0,0,0,0,0,0,0,0,0,0,0,0,0],"sum_hessian":[1.5E1,1.3E1,2E0,1.1E1,2E0,5E0,6E0,1E0,1E0,3E0,2E0,1E0,5E0,1E0,1E0,4E0,1E0,3E0,1E0],"tree_param":{"num_deleted":"0","num_feature":"4","num_nodes":"19","size_leaf_vector":"0"}},{"base_weights":[1.0444758E0,4.3146706E-1,1.7709917E0,7.098869E-1,1.2753932E-1,1.9862798E0,2.3963165E-1,2.37113E-1,1.3004913E0,1.9557495E-1,-1.0631943E-1,9.9469566E-1,2.6462986E0,4.2585373E-2,2.877604E-1,2.3269081E-1,2.3555756E-2,1.3560842E0,-4.4734955E-2],"categories":[],"categories_nodes":[],"categories_segments":[],"categories_sizes":[],"default_left":[1,1,1,1,1,1,0,1,0,1,0,1,0,0,0,0,0,0,0],"id":12,"left_children":[1,3,5,7,9,11,-1,13,-1,15,-1,17,-1,-1,-1,-1,-1,-1,-1],"loss_changes":[6.3616467E0,7.556565E-1,1.83181E0,1.0877485E0,1.1625778E-1,1.2945251E0,0E0,2.7154893E-2,0E0,2.6441991E-2,0E0,1.5632176E0,0E0,0E0,0E0,0E0,0E0,0E0,0E0],"parents":[2147483647,0,0,1,1,2,2,3,3,4,4,5,5,7,7,9,9,11,11],"right_children":[2,4,6,8,10,12,-1,14,-1,16,-1,18,-1,-1,-1,-1,-1,-1,-1],"split_conditions":[1.055E1,6.05E0,9E0,5E0,5.5E0,1.435E1,7.18895E-2,3.0500002E0,3.9014742E-1,9.700001E0,-3.189583E-2,1.3E1,7.9388964E-1,1.2775612E-2,8.632813E-2,6.980725E-2,7.066727E-3,4.0682527E-1,-1.3420487E-2],"split_indices":[2,2,3,2,3,2,0,2,0,2,0,2,0,0,0,0,0,0,0],"split_type":[0,0,0,0,0,0,0,0,0,0,0,0,0,0,0,0,0,0,0],"sum_hessian":[1.5E1,9E0,6E0,4E0,5E0,5E0,1E0,3E0,1E0,4E0,1E0,3E0,2E0,1E0,2E0,3E0,1E0,2E0,1E0],"tree_param":{"num_deleted":"0","num_feature":"4","num_nodes":"19","size_leaf_vector":"0"}},{"base_weights":[8.4322166E-1,5.4034644E-1,1.9755656E0,3.6460304E-1,1.0632044E0,1.14222206E-1,5.2712905E-1,1.3911209E0,2.0368576E-1,1.8033409E-1,-1.2001038E-2,1.1054192E0,2.4651082E-1,2.0023346E-2,-3.8024902E-2,1.16456605E-1,4.4839096E-1,1.9075584E-1,-9.037018E-2],"categories":[],"categories_nodes":[],"categories_segments":[],"categories_sizes":[],"default_left":[1,1,0,1,1,1,1,0,0,0,1,0,1,0,0,1,0,0,0],"id":13,"left_children":[1,3,-1,5,7,9,11,-1,-1,-1,13,-1,15,-1,-1,17,-1,-1,-1],"loss_changes":[4.419854E0,8.9879656E-1,0E0,4.2811096E-1,5.6219935E-1,5.223333E-2,8.6345327E-1,0E0,0E0,0E0,3.2615804E-3,0E0,1.05314106E-1,0E0,0E0,9.407401E-2,0E0,0E0,0E0],"parents":[2147483647,0,0,1,1,3,3,4,4,5,5,6,6,10,10,12,12,15,15],"right_children":[2,4,-1,6,8,10,12,-1,-1,-1,14,-1,16,-1,-1,18,-1,-1,-1],"split_conditions":[5E-1,1.435E1,5.9266967E-1,4.5E0,1.5950001E1,9.700001E0,5.5E0,4.173363E-1,6.1105732E-2,5.410023E-2,1.18E1,3.3162576E-1,9.4E0,6.007004E-3,-1.1407471E-2,6.2E0,1.345173E-1,5.7226755E-2,-2.7111055E-2],"split_indices":[0,2,0,3,2,2,3,0,0,0,2,0,2,0,0,2,0,0,0],"split_type":[0,0,0,0,0,0,0,0,0,0,0,0,0,0,0,0,0,0,0],"sum_hessian":[1.5E1,1.3E1,2E0,1.1E1,2E0,5E0,6E0,1E0,1E0,3E0,2E0,1E0,5E0,1E0,1E0,4E0,1E0,3E0,1E0],"tree_param":{"num_deleted":"0","num_feature":"4","num_nodes":"19","size_leaf_vector":"0"}},{"base_weights":[6.9126034E-1,4.51343E-1,1.5804545E0,3.0063567E-1,9.037247E-1,8.807246E-2,4.3988472E-1,1.1824532E0,1.7313385E-1,1.3975906E-1,-1.02005005E-2,9.396057E-1,1.9999695E-1,1.702118E-2,-3.232193E-2,8.754273E-2,3.8113403E-1,1.4783478E-1,-7.6812744E-2],"categories":[],"categories_nodes":[],"categories_segments":[],"categories_sizes":[],"default_left":[1,1,0,1,1,1,1,0,0,0,1,0,1,0,0,1,0,0,0],"id":14,"left_children":[1,3,-1,5,7,9,11,-1,-1,-1,13,-1,15,-1,-1,17,-1,-1,-1],"loss_changes":[2.7000027E0,6.827891E-1,0E0,3.1644905E-1,4.0618682E-1,3.190199E-2,6.512203E-1,0E0,0E0,0E0,2.3567046E-3,0E0,8.885226E-2,0E0,0E0,6.0902238E-2,0E0,0E0,0E0],"parents":[2147483647,0,0,1,1,3,3,4,4,5,5,6,6,10,10,12,12,15,15],"right_children":[2,4,-1,6,8,10,12,-1,-1,-1,14,-1,16,-1,-1,18,-1,-1,-1],"split_conditions":[5E-1,1.435E1,4.7413635E-1,4.5E0,1.5950001E1,9.700001E0,5.5E0,3.5473597E-1,5.1940158E-2,4.192772E-2,1.18E1,2.8188172E-1,9.4E0,5.106354E-3,-9.69658E-3,6.2E0,1.14340216E-1,4.4350434E-2,-2.3043824E-2],"split_indices":[0,2,0,3,2,2,3,0,0,0,2,0,2,0,0,2,0,0,0],"split_type":[0,0,0,0,0,0,0,0,0,0,0,0,0,0,0,0,0,0,0],"sum_hessian":[1.5E1,1.3E1,2E0,1.1E1,2E0,5E0,6E0,1E0,1E0,3E0,2E0,1E0,5E0,1E0,1E0,4E0,1E0,3E0,1E0],"tree_param":{"num_deleted":"0","num_feature":"4","num_nodes":"19","size_leaf_vector":"0"}},{"base_weights":[5.6736135E-1,3.2855517E-1,1.2016411E0,2.483495E-1,6.455116E-1,1.5040792E0,1.4716339E-1,6.787237E-2,3.675657E-1,1.083107E-1,-8.669536E-3,7.986641E-1,1.6260529E-1,1.4469147E-2,-2.747345E-2,6.554107E-2,3.2396317E-1,1.14572525E-1,-6.529236E-2],"categories":[],"categories_nodes":[],"categories_segments":[],"categories_sizes":[],"default_left":[1,1,1,1,0,0,0,1,1,0,1,0,1,0,0,1,0,0,0],"id":15,"left_children":[1,3,5,7,-1,-1,-1,9,11,-1,13,-1,15,-1,-1,17,-1,-1,-1],"loss_changes":[2.0287127E0,1.7016959E-1,1.0543118E0,2.3324198E-1,0E0,0E0,0E0,1.9510366E-2,4.8863983E-1,0E0,1.7028108E-3,0E0,7.273956E-2,0E0,0E0,3.955547E-2,0E0,0E0,0E0],"parents":[2147483647,0,0,1,1,2,2,3,3,7,7,8,8,10,10,12,12,15,15],"right_children":[2,4,6,8,-1,-1,-1,10,12,-1,14,-1,16,-1,-1,18,-1,-1,-1],"split_conditions":[1.435E1,5E-1,6.5E0,4.5E0,1.936535E-1,4.512238E-1,4.414902E-2,9.700001E0,5.5E0,3.249321E-2,1.18E1,2.3959924E-1,9.4E0,4.340744E-3,-8.242035E-3,6.2E0,9.718896E-2,3.437176E-2,-1.9587709E-2],"split_indices":[2,0,3,3,0,0,0,2,3,0,2,0,2,0,0,2,0,0,0],"split_type":[0,0,0,0,0,0,0,0,0,0,0,0,0,0,0,0,0,0,0],"sum_hessian":[1.5E1,1.2E1,3E0,1.1E1,1E0,2E0,1E0,5E0,6E0,3E0,2E0,1E0,5E0,1E0,1E0,4E0,1E0,3E0,1E0],"tree_param":{"num_deleted":"0","num_feature":"4","num_nodes":"19","size_leaf_vector":"0"}},{"base_weights":[4.6397638E-1,2.7412766E-1,9.649906E-1,2.0552444E-1,5.4868317E-1,1.2032623E0,1.2508774E-1,5.227534E-2,3.0752018E-1,8.3940506E-2,-7.369995E-3,6.788635E-1,1.324857E-1,1.2298584E-2,-2.3353577E-2,4.8835754E-2,2.7536774E-1,8.879471E-2,-5.550003E-2],"categories":[],"categories_nodes":[],"categories_segments":[],"categories_sizes":[],"default_left":[1,1,1,1,0,0,0,1,1,0,1,0,1,0,0,1,0,0,0],"id":16,"left_children":[1,3,5,7,-1,-1,-1,9,11,-1,13,-1,15,-1,-1,17,-1,-1,-1],"loss_changes":[1.2573397E0,1.320923E-1,6.49987E-1,1.7149335E-1,0E0,0E0,0E0,1.1950716E-2,3.6504555E-1,0E0,1.2303389E-3,0E0,5.826465E-2,0E0,0E0,2.5773853E-2,0E0,0E0,0E0],"parents":[2147483647,0,0,1,1,2,2,3,3,7,7,8,8,10,10,12,12,15,15],"right_children":[2,4,6,8,-1,-1,-1,10,12,-1,14,-1,16,-1,-1,18,-1,-1,-1],"split_conditions":[1.435E1,5E-1,6.5E0,4.5E0,1.6460496E-1,3.6097872E-1,3.7526324E-2,9.700001E0,5.5E0,2.5182152E-2,1.18E1,2.0365907E-1,9.4E0,3.6895752E-3,-7.0060734E-3,6.2E0,8.2610324E-2,2.6638413E-2,-1.665001E-2],"split_indices":[2,0,3,3,0,0,0,2,3,0,2,0,2,0,0,2,0,0,0],"split_type":[0,0,0,0,0,0,0,0,0,0,0,0,0,0,0,0,0,0,0],"sum_hessian":[1.5E1,1.2E1,3E0,1.1E1,1E0,2E0,1E0,5E0,6E0,3E0,2E0,1E0,5E0,1E0,1E0,4E0,1E0,3E0,1E0],"tree_param":{"num_deleted":"0","num_feature":"4","num_nodes":"19","size_leaf_vector":"0"}},{"base_weights":[3.7985897E-1,2.4679402E-1,8.742091E-1,2.7069092E-2,3.0425817E-1,4.932658E-2,-1.9851685E-2,4.970337E-1,1.2309592E-1,3.6180116E-2,2.2692363E-1,6.8813324E-2,-4.717636E-2,-4.509735E-2,1.21816E-1],"categories":[],"categories_nodes":[],"categories_segments":[],"categories_sizes":[],"default_left":[1,1,0,1,1,0,0,0,1,1,0,1,0,0,0],"id":17,"left_children":[1,3,-1,5,7,-1,-1,-1,9,11,-1,13,-1,-1,-1],"loss_changes":[8.3674145E-1,1.6853237E-1,0E0,5.156569E-3,3.229773E-1,0E0,0E0,0E0,5.495976E-2,1.6847309E-2,0E0,2.9643858E-2,0E0,0E0,0E0],"parents":[2147483647,0,0,1,1,3,3,4,4,8,8,9,9,11,11],"right_children":[2,4,-1,6,8,-1,-1,-1,10,12,-1,14,-1,-1,-1],"split_conditions":[5E-1,1.5E0,2.6226273E-1,1.08E1,5.5E0,1.4797974E-2,-5.9555057E-3,1.4911011E-1,9.4E0,6.2E0,6.8077095E-2,3.0500002E0,-1.4152909E-2,-1.3529206E-2,3.6544804E-2],"split_indices":[0,3,0,2,3,0,0,0,2,2,0,2,0,0,0],"split_type":[0,0,0,0,0,0,0,0,0,0,0,0,0,0,0],"sum_hessian":[1.5E1,1.3E1,2E0,3E0,1E1,2E0,1E0,4E0,6E0,4E0,2E0,3E0,1E0,1E0,2E0],"tree_param":{"num_deleted":"0","num_feature":"4","num_nodes":"15","size_leaf_vector":"0"}},{"base_weights":[2.969737E-1,1.638882E-1,6.552582E-1,-3.8333893E-2,1.8393452E-1,8.254878E-1,7.22847E-2,3.2432938E-1,1.0109965E-1,9.74528E-2,5.0247955E-1,-2.1151224E-2,2.5920105E-1,3.945923E-2,-6.132126E-2,3.5684967E-1,-1.6872406E-2],"categories":[],"categories_nodes":[],"categories_segments":[],"categories_sizes":[],"default_left":[1,1,1,0,1,0,0,1,1,0,0,1,1,0,0,0,0],"id":18,"left_children":[1,3,5,-1,7,-1,-1,9,11,-1,-1,13,15,-1,-1,-1,-1],"loss_changes":[6.555306E-1,5.9750468E-2,3.372873E-1,0E0,1.0676548E-1,0E0,0E0,1.1270434E-1,1.7943472E-1,0E0,0E0,1.7028034E-2,1.1385363E-1,0E0,0E0,0E0,0E0],"parents":[2147483647,0,0,1,1,2,2,4,4,7,7,8,8,11,11,12,12],"right_children":[2,4,6,-1,8,-1,-1,10,12,-1,-1,14,16,-1,-1,-1,-1],"split_conditions":[1.435E1,3.0500002E0,6.5E0,-1.1500169E-2,6.05E0,2.4764635E-1,2.168541E-2,5E0,1.055E1,2.923584E-2,1.5074387E-1,2.5E0,1.3E1,1.1837769E-2,-1.8396378E-2,1.07054904E-1,-5.061722E-3],"split_indices":[2,2,3,0,2,0,0,2,2,0,0,3,2,0,0,0,0],"split_type":[0,0,0,0,0,0,0,0,0,0,0,0,0,0,0,0,0],"sum_hessian":[1.5E1,1.2E1,3E0,1E0,1.1E1,2E0,1E0,3E0,8E0,2E0,1E0,5E0,3E0,2E0,3E0,2E0,1E0],"tree_param":{"num_deleted":"0","num_feature":"4","num_nodes":"17","size_leaf_vector":"0"}},{"base_weights":[2.4120808E-1,1.3502151E-1,5.260124E-1,-3.2585144E-2,1.5170415E-1,6.603877E-1,6.144333E-2,2.7202606E-1,8.137173E-2,7.796224E-2,4.2710876E-1,-1.590093E-2,2.0693779E-1,3.156535E-2,-4.7525406E-2,2.8547922E-1,-1.4343262E-2,7.499695E-3,3.9848328E-2],"categories":[],"categories_nodes":[],"categories_segments":[],"categories_sizes":[],"default_left":[1,1,1,0,1,0,0,1,1,0,0,1,1,1,0,0,0,0,0],"id":19,"left_children":[1,3,5,-1,7,-1,-1,9,11,-1,-1,13,15,17,-1,-1,-1,-1,-1],"loss_changes":[4.1285527E-1,4.129292E-2,2.0913005E-1,0E0,7.941511E-2,0E0,0E0,8.7085426E-2,1.132178E-1,0E0,0E0,1.0506732E-2,7.361364E-2,2.9915548E-4,0E0,0E0,0E0,0E0,0E0],"parents":[2147483647,0,0,1,1,2,2,4,4,7,7,8,8,11,11,12,12,13,13],"right_children":[2,4,6,-1,8,-1,-1,10,12,-1,-1,14,16,18,-1,-1,-1,-1,-1],"split_conditions":[1.435E1,3.0500002E0,6.5E0,-9.775544E-3,6.05E0,1.9811632E-1,1.8432999E-2,5E0,1.055E1,2.3388673E-2,1.2813264E-1,2.5E0,1.3E1,7.4E0,-1.4257622E-2,8.564377E-2,-4.3029785E-3,2.2499086E-3,1.19544985E-2],"split_indices":[2,2,3,0,2,0,0,2,2,0,0,3,2,2,0,0,0,0,0],"split_type":[0,0,0,0,0,0,0,0,0,0,0,0,0,0,0,0,0,0,0],"sum_hessian":[1.5E1,1.2E1,3E0,1E0,1.1E1,2E0,1E0,3E0,8E0,2E0,1E0,5E0,3E0,2E0,3E0,2E0,1E0,1E0,1E0],"tree_param":{"num_deleted":"0","num_feature":"4","num_nodes":"19","size_leaf_vector":"0"}},{"base_weights":[1.9631863E-1,1.20104656E-1,4.8654428E-1,8.1160225E-2,2.3584747E-1,1.7155762E-1,1.451683E-2,3.015442E-1,5.222702E-2,3.292656E-2,3.6304092E-1,-1.3031006E-2,1.0367584E-1,-2.7698517E-2,6.2367756E-2,1.4026642E-2,-3.6830902E-2,2.6830038E-2,-1.2191772E-2,-1.725769E-2,-4.777527E-2],"categories":[],"categories_nodes":[],"categories_segments":[],"categories_sizes":[],"default_left":[1,1,0,1,1,1,1,0,0,1,0,1,0,0,0,1,1,0,0,0,0],"id":20,"left_children":[1,3,-1,5,7,9,11,-1,-1,13,-1,15,-1,-1,-1,17,19,-1,-1,-1,-1],"loss_changes":[2.954718E-1,4.3964088E-2,0E0,6.9802195E-2,2.044104E-2,1.2077397E-1,2.1000106E-2,0E0,0E0,8.866994E-3,0E0,5.024398E-3,0E0,0E0,0E0,1.6698446E-3,3.2374635E-5,0E0,0E0,0E0,0E0],"parents":[2147483647,0,0,1,1,3,3,4,4,5,5,6,6,9,9,11,11,15,15,16,16],"right_children":[2,4,-1,6,8,10,12,-1,-1,14,-1,16,-1,-1,-1,18,20,-1,-1,-1,-1],"split_conditions":[5E-1,1.435E1,1.459633E-1,6.05E0,1.5950001E1,5E0,7.5E0,9.046326E-2,1.5668107E-2,3.0500002E0,1.0891228E-1,2.5E0,3.1102754E-2,-8.309555E-3,1.8710328E-2,1.08E1,9.700001E0,8.049012E-3,-3.657532E-3,-5.1773074E-3,-1.4332581E-2],"split_indices":[0,2,0,2,2,2,3,0,0,2,0,3,0,0,0,2,2,0,0,0,0],"split_type":[0,0,0,0,0,0,0,0,0,0,0,0,0,0,0,0,0,0,0,0,0],"sum_hessian":[1.5E1,1.3E1,2E0,1.1E1,2E0,4E0,7E0,1E0,1E0,3E0,1E0,6E0,1E0,1E0,2E0,3E0,3E0,2E0,1E0,2E0,1E0],"tree_param":{"num_deleted":"0","num_feature":"4","num_nodes":"21","size_leaf_vector":"0"}},{"base_weights":[1.616354E-1,8.837597E-2,3.593197E-1,1.4395447E-1,4.7679476E-2,4.494985E-1,4.4391632E-2,2.5650024E-2,3.0858612E-1,-9.705861E-3,1.21837616E-1,-2.3544312E-2,4.989624E-2,2.146403E-2,-3.0656815E-2,1.6935985E-1,-1.03645325E-2,2.3498535E-3,2.9846191E-2,-1.3804118E-2,-4.0607452E-2,-2.1183014E-2,4.7683716E-4],"categories":[],"categories_nodes":[],"categories_segments":[],"categories_sizes":[],"default_left":[1,1,1,1,1,0,0,1,0,1,1,0,0,1,1,0,0,0,0,1,0,0,0],"id":21,"left_children":[1,3,5,7,9,-1,-1,11,-1,13,15,-1,-1,17,19,-1,-1,-1,-1,21,-1,-1,-1],"loss_changes":[1.9996056E-1,2.2540383E-2,9.3645394E-2,8.946803E-2,3.9482847E-2,0E0,0E0,5.945878E-3,0E0,4.5762523E-3,2.6885495E-2,0E0,0E0,4.1052012E-4,1.10230176E-4,0E0,0E0,0E0,0E0,3.2623386E-4,0E0,0E0,0E0],"parents":[2147483647,0,0,1,1,2,2,3,3,4,4,7,7,9,9,10,10,13,13,14,14,19,19],"right_children":[2,4,6,8,10,-1,-1,12,-1,14,16,-1,-1,18,20,-1,-1,-1,-1,22,-1,-1,-1],"split_conditions":[1.435E1,6.05E0,6.5E0,5E0,1.055E1,1.3484956E-1,1.331749E-2,3.0500002E0,9.257584E-2,2.5E0,1.3E1,-7.063294E-3,1.4968873E-2,7.4E0,9.700001E0,5.0807957E-2,-3.1093599E-3,7.0495607E-4,8.953858E-3,8.55E0,-1.2182237E-2,-6.3549043E-3,1.4305115E-4],"split_indices":[2,2,3,2,2,0,0,2,0,3,2,0,0,2,2,0,0,0,0,2,0,0,0],"split_type":[0,0,0,0,0,0,0,0,0,0,0,0,0,0,0,0,0,0,0,0,0,0,0],"sum_hessian":[1.5E1,1.2E1,3E0,4E0,8E0,2E0,1E0,3E0,1E0,5E0,3E0,1E0,2E0,2E0,3E0,2E0,1E0,1E0,1E0,2E0,1E0,1E0,1E0],"tree_param":{"num_deleted":"0","num_feature":"4","num_nodes":"23","size_leaf_vector":"0"}},{"base_weights":[1.311202E-1,7.970592E-2,3.273468E-1,9.279251E-3,9.806962E-2,1.8244425E-2,-8.808136E-3,1.6683045E-1,3.4944806E-2,1.9989014E-3,2.5367737E-2,2.6229858E-1,7.738876E-2,-2.0011902E-2,4.7439575E-2,-2.2740683E-2,1.8888855E-1,1.100413E-2,6.2906265E-2,4.043579E-4,-3.451538E-2,3.4511566E-2,-1.8005371E-2],"categories":[],"categories_nodes":[],"categories_segments":[],"categories_sizes":[],"default_left":[1,1,0,1,1,1,0,1,1,0,0,0,1,0,1,1,0,1,0,0,0,0,0],"id":22,"left_children":[1,3,-1,5,7,9,-1,11,13,-1,-1,-1,15,-1,17,19,-1,21,-1,-1,-1,-1,-1],"loss_changes":[1.3533011E-1,1.7196111E-2,0E0,8.093257E-4,4.191579E-2,2.9645814E-4,0E0,2.2395194E-2,5.756055E-3,0E0,0E0,0E0,4.895311E-2,0E0,2.6889844E-3,8.3153415E-4,0E0,2.6672105E-3,0E0,0E0,0E0,0E0,0E0],"parents":[2147483647,0,0,1,1,3,3,4,4,5,5,7,7,8,8,12,12,14,14,15,15,17,17],"right_children":[2,4,-1,6,8,10,-1,12,14,-1,-1,-1,16,-1,18,20,-1,22,-1,-1,-1,-1,-1],"split_conditions":[5E-1,1.5E0,9.820405E-2,1.08E1,5.5E0,7.4E0,-2.6424408E-3,7.3500004E0,3.0500002E0,5.9967046E-4,7.6103215E-3,7.8689575E-2,1.265E1,-6.0035707E-3,7.5E0,9.700001E0,5.6666568E-2,5.5E0,1.8871881E-2,1.2130738E-4,-1.0354615E-2,1.035347E-2,-5.4016113E-3],"split_indices":[0,3,0,2,3,2,0,2,2,0,0,0,2,0,3,2,0,2,0,0,0,0,0],"split_type":[0,0,0,0,0,0,0,0,0,0,0,0,0,0,0,0,0,0,0,0,0,0,0],"sum_hessian":[1.5E1,1.3E1,2E0,3E0,1E1,2E0,1E0,4E0,6E0,1E0,1E0,1E0,3E0,1E0,5E0,2E0,1E0,2E0,3E0,1E0,1E0,1E0,1E0],"tree_param":{"num_deleted":"0","num_feature":"4","num_nodes":"23","size_leaf_vector":"0"}},{"base_weights":[1.0720253E-1,5.651738E-2,2.4512863E-1,1.0048218E-1,2.5812784E-2,3.0797577E-1,2.829361E-2,1.4125824E-2,2.229538E-1,-7.0139566E-3,6.85997E-2,-1.7009735E-2,3.0174255E-2,1.5505473E-2,-2.215004E-2,9.6458435E-2,-7.4882507E-3,1.6975403E-3,2.1560669E-2,-9.974162E-3,-2.9338837E-2,-1.5304565E-2,3.4332275E-4],"categories":[],"categories_nodes":[],"categories_segments":[],"categories_sizes":[],"default_left":[1,1,1,1,1,0,0,1,0,1,1,0,0,1,1,0,0,0,0,1,0,0,0],"id":23,"left_children":[1,3,5,7,9,-1,-1,11,-1,13,15,-1,-1,17,19,-1,-1,-1,-1,21,-1,-1,-1],"loss_changes":[9.799886E-2,1.4955249E-2,4.5796126E-2,4.9731612E-2,1.3122151E-2,0E0,0E0,2.5119637E-3,0E0,2.3885826E-3,9.201162E-3,0E0,0E0,2.142291E-4,5.7489146E-5,0E0,0E0,0E0,0E0,1.7024347E-4,0E0,0E0,0E0],"parents":[2147483647,0,0,1,1,2,2,3,3,4,4,7,7,9,9,10,10,13,13,14,14,19,19],"right_children":[2,4,6,8,10,-1,-1,12,-1,14,16,-1,-1,18,20,-1,-1,-1,-1,22,-1,-1,-1],"split_conditions":[1.435E1,6.05E0,6.5E0,5E0,1.055E1,9.2392735E-2,8.488083E-3,3.0500002E0,6.688614E-2,2.5E0,1.3E1,-5.102921E-3,9.052277E-3,7.4E0,9.700001E0,2.8937532E-2,-2.2464753E-3,5.092621E-4,6.468201E-3,8.55E0,-8.801651E-3,-4.59137E-3,1.0299683E-4],"split_indices":[2,2,3,2,2,0,0,2,0,3,2,0,0,2,2,0,0,0,0,2,0,0,0],"split_type":[0,0,0,0,0,0,0,0,0,0,0,0,0,0,0,0,0,0,0,0,0,0,0],"sum_hessian":[1.5E1,1.2E1,3E0,4E0,8E0,2E0,1E0,3E0,1E0,5E0,3E0,1E0,2E0,2E0,3E0,2E0,1E0,1E0,1E0,2E0,1E0,1E0,1E0],"tree_param":{"num_deleted":"0","num_feature":"4","num_nodes":"23","size_leaf_vector":"0"}},{"base_weights":[8.70471E-2,5.203247E-2,2.21433E-1,7.054138E-2,1.5597026E-2,1.4288075E-1,2.9461453E-2,-8.033752E-3,4.190572E-2,2.4810791E-2,1.8951035E-1,-3.748576E-3,1.1436081E-1,-1.4457703E-2,-1.0732015E-3,1.0028839E-2,-2.0868937E-2,1.1398315E-2,-1.3008118E-2,1.8325806E-2,1.1545817E-3,-2.4936676E-2,-6.3667297E-3],"categories":[],"categories_nodes":[],"categories_segments":[],"categories_sizes":[],"default_left":[1,1,0,1,1,1,1,1,0,0,0,1,0,0,1,1,1,0,0,0,0,0,0],"id":24,"left_children":[1,3,-1,5,7,9,11,13,-1,-1,-1,15,-1,-1,17,19,21,-1,-1,-1,-1,-1,-1],"loss_changes":[6.376585E-2,8.341089E-3,0E0,2.2535793E-2,4.0668296E-3,1.1814762E-2,2.0165259E-2,1.6334091E-4,0E0,0E0,0E0,1.624537E-3,0E0,0E0,5.948102E-4,2.73359E-4,1.820852E-5,0E0,0E0,0E0,0E0,0E0,0E0],"parents":[2147483647,0,0,1,1,3,3,4,4,5,5,6,6,7,7,11,11,14,14,15,15,16,16],"right_children":[2,4,-1,6,8,10,12,14,-1,-1,-1,16,-1,-1,18,20,22,-1,-1,-1,-1,-1,-1],"split_conditions":[5E-1,6.5E0,6.6429906E-2,6.05E0,9.4E0,4.3E0,1.435E1,3.75E0,1.2571717E-2,7.4432376E-3,5.6853104E-2,9.700001E0,3.4308244E-2,-4.337311E-3,6.2E0,5E-1,1.18E1,3.4194947E-3,-3.9024355E-3,5.497742E-3,3.4637452E-4,-7.481003E-3,-1.910019E-3],"split_indices":[0,3,0,2,2,2,2,2,0,0,0,2,0,0,2,3,2,0,0,0,0,0,0],"split_type":[0,0,0,0,0,0,0,0,0,0,0,0,0,0,0,0,0,0,0,0,0,0,0],"sum_hessian":[1.5E1,1.3E1,2E0,8E0,5E0,2E0,6E0,3E0,2E0,1E0,1E0,5E0,1E0,1E0,2E0,3E0,2E0,1E0,1E0,1E0,2E0,1E0,1E0],"tree_param":{"num_deleted":"0","num_feature":"4","num_nodes":"23","size_leaf_vector":"0"}},{"base_weights":[7.1510315E-2,4.6678163E-2,2.219963E-1,6.2691495E-2,1.2209575E-2,1.2144724E-1,3.2821655E-2,-6.828308E-3,3.352356E-2,2.1087646E-2,1.6108322E-1,9.737288E-3,9.7206116E-2,-1.2290955E-2,-9.104411E-4,-3.2145183E-3,4.372406E-2,9.689331E-3,-1.1054993E-2,8.481979E-3,-1.7738342E-2],"categories":[],"categories_nodes":[],"categories_segments":[],"categories_sizes":[],"default_left":[1,1,0,1,1,1,1,1,0,0,0,1,0,0,1,1,0,0,0,0,0],"id":25,"left_children":[1,3,-1,5,7,9,11,13,-1,-1,-1,15,-1,-1,17,19,-1,-1,-1,-1,-1],"loss_changes":[4.942789E-2,7.513918E-3,0E0,1.3564147E-2,2.663548E-3,8.536689E-3,1.0943674E-2,1.1811868E-4,0E0,0E0,0E0,3.2218823E-3,0E0,0E0,4.2970528E-4,1.1697236E-3,0E0,0E0,0E0,0E0,0E0],"parents":[2147483647,0,0,1,1,3,3,4,4,5,5,6,6,7,7,11,11,14,14,15,15],"right_children":[2,4,-1,6,8,10,12,14,-1,-1,-1,16,-1,-1,18,20,-1,-1,-1,-1,-1],"split_conditions":[1.78E1,6.5E0,6.659889E-2,6.05E0,9.4E0,4.3E0,1.435E1,3.75E0,1.0057068E-2,6.326294E-3,4.832497E-2,5E-1,2.9161835E-2,-3.6872865E-3,6.2E0,9.700001E0,1.3117218E-2,2.9067993E-3,-3.316498E-3,2.544594E-3,-5.3215027E-3],"split_indices":[2,3,0,2,2,2,2,2,0,0,0,0,0,0,2,2,0,0,0,0,0],"split_type":[0,0,0,0,0,0,0,0,0,0,0,0,0,0,0,0,0,0,0,0,0],"sum_hessian":[1.5E1,1.4E1,1E0,9E0,5E0,2E0,7E0,3E0,2E0,1E0,1E0,6E0,1E0,1E0,2E0,5E0,1E0,1E0,1E0,3E0,2E0],"tree_param":{"num_deleted":"0","num_feature":"4","num_nodes":"21","size_leaf_vector":"0"}},{"base_weights":[6.047678E-2,3.9348856E-2,1.8869781E-1,5.329895E-2,9.540558E-3,1.032308E-1,2.791214E-2,-5.804062E-3,2.6819864E-2,1.7925262E-2,1.3692093E-1,8.292062E-3,8.262634E-2,-1.0448456E-2,-7.73112E-4,-2.714793E-3,3.7166595E-2,8.235931E-3,-9.395599E-3,6.570816E-3,-1.4190674E-2],"categories":[],"categories_nodes":[],"categories_segments":[],"categories_sizes":[],"default_left":[1,1,0,1,1,1,1,1,0,0,0,1,0,0,1,1,0,0,0,0,0],"id":26,"left_children":[1,3,-1,5,7,9,11,13,-1,-1,-1,15,-1,-1,17,19,-1,-1,-1,-1,-1],"loss_changes":[3.5919663E-2,5.7289284E-3,0E0,9.794708E-3,1.7465306E-3,6.1675236E-3,7.902833E-3,8.538502E-5,0E0,0E0,0E0,2.3256242E-3,0E0,0E0,3.104226E-4,7.3260756E-4,0E0,0E0,0E0,0E0,0E0],"parents":[2147483647,0,0,1,1,3,3,4,4,5,5,6,6,7,7,11,11,14,14,15,15],"right_children":[2,4,-1,6,8,10,12,14,-1,-1,-1,16,-1,-1,18,20,-1,-1,-1,-1,-1],"split_conditions":[1.78E1,6.5E0,5.6609347E-2,6.05E0,9.4E0,4.3E0,1.435E1,3.75E0,8.045959E-3,5.377579E-3,4.107628E-2,5E-1,2.4787905E-2,-3.1345368E-3,6.2E0,9.700001E0,1.1149979E-2,2.4707795E-3,-2.81868E-3,1.9712448E-3,-4.257202E-3],"split_indices":[2,3,0,2,2,2,2,2,0,0,0,0,0,0,2,2,0,0,0,0,0],"split_type":[0,0,0,0,0,0,0,0,0,0,0,0,0,0,0,0,0,0,0,0,0],"sum_hessian":[1.5E1,1.4E1,1E0,9E0,5E0,2E0,7E0,3E0,2E0,1E0,1E0,6E0,1E0,1E0,2E0,5E0,1E0,1E0,1E0,3E0,2E0],"tree_param":{"num_deleted":"0","num_feature":"4","num_nodes":"21","size_leaf_vector":"0"}},{"base_weights":[5.1163673E-2,3.3188883E-2,1.6039276E-1,4.532089E-2,7.437388E-3,8.774567E-2,2.374649E-2,-4.934311E-3,2.1453857E-2,1.5235901E-2,1.163826E-1,-2.4856566E-3,5.0600052E-2,-8.880615E-3,-6.586711E-4,1.3317108E-2,-9.765625E-3,2.0645142E-2,7.023239E-2,6.9999695E-3,-7.987976E-3,-2.085368E-3,-1.6403198E-2,-6.2561035E-4,3.1593323E-2],"categories":[],"categories_nodes":[],"categories_segments":[],"categories_sizes":[],"default_left":[1,1,0,1,1,1,1,1,0,0,0,1,1,0,1,0,1,1,0,0,0,0,0,0,0],"id":27,"left_children":[1,3,-1,5,7,9,11,13,-1,-1,-1,15,17,-1,19,-1,21,23,-1,-1,-1,-1,-1,-1,-1],"loss_changes":[2.6090667E-2,4.349189E-3,0E0,7.0692394E-3,1.1463052E-3,4.456181E-3,5.7611875E-3,6.1642495E-5,0E0,0E0,0E0,7.05268E-4,9.0238266E-4,0E0,2.2431313E-4,0E0,1.6970636E-4,7.1839313E-4,0E0,0E0,0E0,0E0,0E0,0E0,0E0],"parents":[2147483647,0,0,1,1,3,3,4,4,5,5,6,6,7,7,11,11,12,12,14,14,16,16,17,17],"right_children":[2,4,-1,6,8,10,12,14,-1,-1,-1,16,18,-1,20,-1,22,24,-1,-1,-1,-1,-1,-1,-1],"split_conditions":[1.78E1,6.5E0,4.811783E-2,6.05E0,9.4E0,4.3E0,1.13E1,3.75E0,6.4361575E-3,4.5707705E-3,3.491478E-2,5E-1,1.435E1,-2.6641847E-3,6.2E0,3.9951326E-3,9.700001E0,5E-1,2.1069719E-2,2.0999908E-3,-2.3963929E-3,-6.256104E-4,-4.9209595E-3,-1.8768311E-4,9.477997E-3],"split_indices":[2,3,0,2,2,2,2,2,0,0,0,3,2,0,2,0,2,0,0,0,0,0,0,0,0],"split_type":[0,0,0,0,0,0,0,0,0,0,0,0,0,0,0,0,0,0,0,0,0,0,0,0,0],"sum_hessian":[1.5E1,1.4E1,1E0,9E0,5E0,2E0,7E0,3E0,2E0,1E0,1E0,4E0,3E0,1E0,2E0,1E0,3E0,2E0,1E0,1E0,1E0,2E0,1E0,1E0,1E0],"tree_param":{"num_deleted":"0","num_feature":"4","num_nodes":"25","size_leaf_vector":"0"}},{"base_weights":[4.3307304E-2,2.8016662E-2,1.3633347E-1,3.855438E-2,5.784353E-3,7.458496E-2,2.0223618E-2,-4.1942596E-3,1.716105E-2,1.2950897E-2,9.8926544E-2,-2.0507812E-3,4.301071E-2,-7.549286E-3,-5.5948895E-4,1.1318207E-2,-8.22258E-3,1.755015E-2,5.9696198E-2,5.9509277E-3,-6.790161E-3,-1.6682943E-3,-1.39427185E-2,-5.302429E-4,2.6855469E-2],"categories":[],"categories_nodes":[],"categories_segments":[],"categories_sizes":[],"default_left":[1,1,0,1,1,1,1,1,0,0,0,1,1,0,1,0,1,1,0,0,0,0,0,0,0],"id":28,"left_children":[1,3,-1,5,7,9,11,13,-1,-1,-1,15,17,-1,19,-1,21,23,-1,-1,-1,-1,-1,-1,-1],"loss_changes":[1.8939266E-2,3.2911561E-3,0E0,5.0963024E-3,7.531199E-4,3.219625E-3,4.148756E-3,4.4555265E-5,0E0,0E0,0E0,5.0561834E-4,6.516096E-4,0E0,1.6210058E-4,0E0,1.2670516E-4,5.1897136E-4,0E0,0E0,0E0,0E0,0E0,0E0,0E0],"parents":[2147483647,0,0,1,1,3,3,4,4,5,5,6,6,7,7,11,11,12,12,14,14,16,16,17,17],"right_children":[2,4,-1,6,8,10,12,14,-1,-1,-1,16,18,-1,20,-1,22,24,-1,-1,-1,-1,-1,-1,-1],"split_conditions":[1.78E1,6.5E0,4.090004E-2,6.05E0,9.4E0,4.3E0,1.13E1,3.75E0,5.1483153E-3,3.8852694E-3,2.9677965E-2,5E-1,1.435E1,-2.2647858E-3,6.2E0,3.3954622E-3,9.700001E0,5E-1,1.790886E-2,1.7852784E-3,-2.0370483E-3,-5.004883E-4,-4.1828156E-3,-1.5907288E-4,8.056641E-3],"split_indices":[2,3,0,2,2,2,2,2,0,0,0,3,2,0,2,0,2,0,0,0,0,0,0,0,0],"split_type":[0,0,0,0,0,0,0,0,0,0,0,0,0,0,0,0,0,0,0,0,0,0,0,0,0],"sum_hessian":[1.5E1,1.4E1,1E0,9E0,5E0,2E0,7E0,3E0,2E0,1E0,1E0,4E0,3E0,1E0,2E0,1E0,3E0,2E0,1E0,1E0,1E0,2E0,1E0,1E0,1E0],"tree_param":{"num_deleted":"0","num_feature":"4","num_nodes":"25","size_leaf_vector":"0"}},{"base_weights":[3.6666393E-2,2.365977E-2,1.1588287E-1,3.279724E-2,4.4873557E-3,6.339773E-2,1.7222404E-2,-3.5648346E-3,1.3727824E-2,1.1009216E-2,8.408737E-2,-1.6921997E-3,3.656006E-2,-6.416321E-3,-4.7556558E-4,1.7677307E-2,2.9144287E-3,9.6206665E-3,-6.925583E-3,1.491801E-2,5.0743103E-2,5.0582886E-3,-5.771637E-3,-1.332601E-3,-1.1852264E-2,-4.5013428E-4,2.2827148E-2],"categories":[],"categories_nodes":[],"categories_segments":[],"categories_sizes":[],"default_left":[1,1,0,1,1,1,1,1,1,0,0,1,1,0,1,0,0,0,1,1,0,0,0,0,0,0,0],"id":29,"left_children":[1,3,-1,5,7,9,11,13,15,-1,-1,17,19,-1,21,-1,-1,-1,23,25,-1,-1,-1,-1,-1,-1,-1],"loss_changes":[1.3743661E-2,2.4806382E-3,0E0,3.6741141E-3,4.9537345E-4,2.3259632E-3,2.9879794E-3,3.2184653E-5,7.660274E-5,0E0,0E0,3.6265154E-4,4.708143E-4,0E0,1.1711766E-4,0E0,0E0,0E0,9.4425035E-5,3.7492166E-4,0E0,0E0,0E0,0E0,0E0,0E0,0E0],"parents":[2147483647,0,0,1,1,3,3,4,4,5,5,6,6,7,7,8,8,11,11,12,12,14,14,18,18,19,19],"right_children":[2,4,-1,6,8,10,12,14,16,-1,-1,18,20,-1,22,-1,-1,-1,24,26,-1,-1,-1,-1,-1,-1,-1],"split_conditions":[1.78E1,6.5E0,3.4764864E-2,6.05E0,9.4E0,4.3E0,1.13E1,3.75E0,1.385E1,3.302765E-3,2.5226213E-2,5E-1,1.435E1,-1.9248963E-3,6.2E0,5.3031924E-3,8.7432866E-4,2.8862E-3,9.700001E0,5E-1,1.5222931E-2,1.5174866E-3,-1.7314912E-3,-3.997803E-4,-3.5556795E-3,-1.3504029E-4,6.848145E-3],"split_indices":[2,3,0,2,2,2,2,2,2,0,0,3,2,0,2,0,0,0,2,0,0,0,0,0,0,0,0],"split_type":[0,0,0,0,0,0,0,0,0,0,0,0,0,0,0,0,0,0,0,0,0,0,0,0,0,0,0],"sum_hessian":[1.5E1,1.4E1,1E0,9E0,5E0,2E0,7E0,3E0,2E0,1E0,1E0,4E0,3E0,1E0,2E0,1E0,1E0,1E0,3E0,2E0,1E0,1E0,1E0,2E0,1E0,1E0,1E0],"tree_param":{"num_deleted":"0","num_feature":"4","num_nodes":"27","size_leaf_vector":"0"}},{"base_weights":[3.1178474E-2,2.01238E-2,9.84993E-2,2.7897645E-2,3.8134258E-3,5.3888958E-2,1.4663696E-2,-3.030777E-3,1.1667888E-2,9.357452E-3,7.147598E-2,-1.3992309E-3,3.1076431E-2,-5.455017E-3,-4.043579E-4,1.50260925E-2,2.4757385E-3,8.178711E-3,-5.838394E-3,1.2680054E-2,4.3132782E-2,4.299164E-3,-4.9057007E-3,-1.0681152E-3,-1.00746155E-2,-3.8146973E-4,1.940155E-2],"categories":[],"categories_nodes":[],"categories_segments":[],"categories_sizes":[],"default_left":[1,1,0,1,1,1,1,1,1,0,0,1,1,0,1,0,0,0,1,1,0,0,0,0,0,0,0],"id":30,"left_children":[1,3,-1,5,7,9,11,13,15,-1,-1,17,19,-1,21,-1,-1,-1,23,25,-1,-1,-1,-1,-1,-1,-1],"loss_changes":[9.925175E-3,1.7955294E-3,0E0,2.649465E-3,3.5790796E-4,1.6806973E-3,2.1525756E-3,2.3262503E-5,5.540668E-5,0E0,0E0,2.6034075E-4,3.402466E-4,0E0,8.46069E-5,0E0,0E0,0E0,7.007098E-5,2.7078006E-4,0E0,0E0,0E0,0E0,0E0,0E0,0E0],"parents":[2147483647,0,0,1,1,3,3,4,4,5,5,6,6,7,7,8,8,11,11,12,12,14,14,18,18,19,19],"right_children":[2,4,-1,6,8,10,12,14,16,-1,-1,18,20,-1,22,-1,-1,-1,24,26,-1,-1,-1,-1,-1,-1,-1],"split_conditions":[1.78E1,6.5E0,2.954979E-2,6.05E0,9.4E0,4.3E0,1.13E1,3.75E0,1.385E1,2.8072358E-3,2.1442795E-2,5E-1,1.435E1,-1.6365052E-3,6.2E0,4.507828E-3,7.427216E-4,2.4536133E-3,9.700001E0,5E-1,1.2939835E-2,1.2897492E-3,-1.4717103E-3,-3.2043457E-4,-3.0223848E-3,-1.14440925E-4,5.8204653E-3],"split_indices":[2,3,0,2,2,2,2,2,2,0,0,3,2,0,2,0,0,0,2,0,0,0,0,0,0,0,0],"split_type":[0,0,0,0,0,0,0,0,0,0,0,0,0,0,0,0,0,0,0,0,0,0,0,0,0,0,0],"sum_hessian":[1.5E1,1.4E1,1E0,9E0,5E0,2E0,7E0,3E0,2E0,1E0,1E0,4E0,3E0,1E0,2E0,1E0,1E0,1E0,3E0,2E0,1E0,1E0,1E0,2E0,1E0,1E0,1E0],"tree_param":{"num_deleted":"0","num_feature":"4","num_nodes":"27","size_leaf_vector":"0"}},{"base_weights":[2.651167E-2,1.7115783E-2,8.3724976E-2,2.372818E-2,3.2424927E-3,4.580434E-2,1.2483597E-2,-2.5749207E-3,9.918213E-3,7.953644E-3,6.075287E-2,-1.1581421E-3,2.6414871E-2,-4.634857E-3,-3.4332275E-4,1.2771606E-2,2.105713E-3,6.9503784E-3,-4.922867E-3,1.0777791E-2,3.6663055E-2,3.65448E-3,-4.169464E-3,-8.544922E-4,-8.563995E-3,-3.2424927E-4,1.6490936E-2],"categories":[],"categories_nodes":[],"categories_segments":[],"categories_sizes":[],"default_left":[1,1,0,1,1,1,1,1,1,0,0,1,1,0,1,0,0,0,1,1,0,0,0,0,0,0,0],"id":31,"left_children":[1,3,-1,5,7,9,11,13,15,-1,-1,17,19,-1,21,-1,-1,-1,23,25,-1,-1,-1,-1,-1,-1,-1],"loss_changes":[7.1680946E-3,1.2990972E-3,0E0,1.9105696E-3,2.5855115E-4,1.21423E-3,1.5509666E-3,1.6796548E-5,3.9983075E-5,0E0,0E0,1.8684752E-4,2.4585985E-4,0E0,6.11257E-5,0E0,0E0,0E0,5.1936033E-5,1.9562981E-4,0E0,0E0,0E0,0E0,0E0,0E0,0E0],"parents":[2147483647,0,0,1,1,3,3,4,4,5,5,6,6,7,7,8,8,11,11,12,12,14,14,18,18,19,19],"right_children":[2,4,-1,6,8,10,12,14,16,-1,-1,18,20,-1,22,-1,-1,-1,24,26,-1,-1,-1,-1,-1,-1,-1],"split_conditions":[1.78E1,6.5E0,2.5117494E-2,6.05E0,9.4E0,4.3E0,1.13E1,3.75E0,1.385E1,2.3860931E-3,1.8225862E-2,5E-1,1.435E1,-1.3904572E-3,6.2E0,3.831482E-3,6.317139E-4,2.0851137E-3,9.700001E0,5E-1,1.0998917E-2,1.0963441E-3,-1.2508393E-3,-2.5634767E-4,-2.5691986E-3,-9.727479E-5,4.947281E-3],"split_indices":[2,3,0,2,2,2,2,2,2,0,0,3,2,0,2,0,0,0,2,0,0,0,0,0,0,0,0],"split_type":[0,0,0,0,0,0,0,0,0,0,0,0,0,0,0,0,0,0,0,0,0,0,0,0,0,0,0],"sum_hessian":[1.5E1,1.4E1,1E0,9E0,5E0,2E0,7E0,3E0,2E0,1E0,1E0,4E0,3E0,1E0,2E0,1E0,1E0,1E0,3E0,2E0,1E0,1E0,1E0,2E0,1E0,1E0,1E0],"tree_param":{"num_deleted":"0","num_feature":"4","num_nodes":"27","size_leaf_vector":"0"}},{"base_weights":[2.254343E-2,1.4557393E-2,7.116699E-2,2.01828E-2,2.755483E-3,3.89328E-2,1.06287E-2,-2.1896362E-3,8.430481E-3,6.7596436E-3,5.1639557E-2,-9.567261E-4,2.2453308E-2,-3.9405823E-3,-2.924601E-4,1.0856628E-2,1.789093E-3,3.982544E-3,-5.5770874E-3,9.162903E-3,3.1162262E-2,3.1051636E-3,-3.5438538E-3,6.484985E-5,5.908966E-3,-1.0871887E-3,-7.2784424E-3,-2.746582E-4,1.4019012E-2],"categories":[],"categories_nodes":[],"categories_segments":[],"categories_sizes":[],"default_left":[1,1,0,1,1,1,1,1,1,0,0,1,1,0,1,0,0,1,1,1,0,0,0,0,0,0,0,0,0],"id":32,"left_children":[1,3,-1,5,7,9,11,13,15,-1,-1,17,19,-1,21,-1,-1,23,25,27,-1,-1,-1,-1,-1,-1,-1,-1,-1],"loss_changes":[5.1769475E-3,9.402451E-4,0E0,1.3775886E-3,1.8684093E-4,8.773841E-4,1.1174266E-3,1.2134948E-5,2.8915441E-5,0E0,0E0,1.3631706E-4,1.7744536E-4,0E0,4.4145283E-5,0E0,0E0,2.2258202E-5,1.5003694E-5,1.4133993E-4,0E0,0E0,0E0,0E0,0E0,0E0,0E0,0E0,0E0],"parents":[2147483647,0,0,1,1,3,3,4,4,5,5,6,6,7,7,8,8,11,11,12,12,14,14,17,17,18,18,19,19],"right_children":[2,4,-1,6,8,10,12,14,16,-1,-1,18,20,-1,22,-1,-1,24,26,28,-1,-1,-1,-1,-1,-1,-1,-1,-1],"split_conditions":[1.78E1,6.5E0,2.1350099E-2,6.05E0,9.4E0,4.3E0,1.13E1,3.75E0,1.385E1,2.0278932E-3,1.5491867E-2,8.700001E0,1.435E1,-1.1821748E-3,6.2E0,3.2569887E-3,5.3672795E-4,7.4E0,9.700001E0,5E-1,9.348679E-3,9.315491E-4,-1.0631562E-3,1.9454958E-5,1.7726899E-3,-3.2615662E-4,-2.1835328E-3,-8.239746E-5,4.2057037E-3],"split_indices":[2,3,0,2,2,2,2,2,2,0,0,2,2,0,2,0,0,2,2,0,0,0,0,0,0,0,0,0,0],"split_type":[0,0,0,0,0,0,0,0,0,0,0,0,0,0,0,0,0,0,0,0,0,0,0,0,0,0,0,0,0],"sum_hessian":[1.5E1,1.4E1,1E0,9E0,5E0,2E0,7E0,3E0,2E0,1E0,1E0,4E0,3E0,1E0,2E0,1E0,1E0,2E0,2E0,2E0,1E0,1E0,1E0,1E0,1E0,1E0,1E0,1E0,1E0],"tree_param":{"num_deleted":"0","num_feature":"4","num_nodes":"29","size_leaf_vector":"0"}},{"base_weights":[1.9162178E-2,1.2373861E-2,6.049347E-2,1.7155457E-2,2.3422241E-3,3.309123E-2,9.0351105E-3,-1.8615723E-3,7.1665444E-3,5.744934E-3,4.3891907E-2,-8.1329345E-4,1.9086838E-2,-3.3493042E-3,-2.492269E-4,9.227753E-3,1.5220642E-3,3.384908E-3,-4.740397E-3,7.789612E-3,2.6489258E-2,2.6397705E-3,-3.0136108E-3,5.340576E-5,5.0239563E-3,-9.2315674E-4,-6.187439E-3,-2.3269653E-4,1.1917114E-2],"categories":[],"categories_nodes":[],"categories_segments":[],"categories_sizes":[],"default_left":[1,1,0,1,1,1,1,1,1,0,0,1,1,0,1,0,0,1,1,1,0,0,0,0,0,0,0,0,0],"id":33,"left_children":[1,3,-1,5,7,9,11,13,15,-1,-1,17,19,-1,21,-1,-1,23,25,27,-1,-1,-1,-1,-1,-1,-1,-1,-1],"loss_changes":[3.7405808E-3,6.793265E-4,0E0,9.950565E-4,1.350238E-4,6.339194E-4,8.07471E-4,8.760215E-6,2.0858119E-5,0E0,0E0,9.847968E-5,1.2816628E-4,0E0,3.1914136E-5,0E0,0E0,1.6113172E-5,1.0859141E-5,1.0210936E-4,0E0,0E0,0E0,0E0,0E0,0E0,0E0,0E0,0E0],"parents":[2147483647,0,0,1,1,3,3,4,4,5,5,6,6,7,7,8,8,11,11,12,12,14,14,17,17,18,18,19,19],"right_children":[2,4,-1,6,8,10,12,14,16,-1,-1,18,20,-1,22,-1,-1,24,26,28,-1,-1,-1,-1,-1,-1,-1,-1,-1],"split_conditions":[1.78E1,6.5E0,1.8148042E-2,6.05E0,9.4E0,4.3E0,1.13E1,3.75E0,1.385E1,1.7234803E-3,1.3167572E-2,8.700001E0,1.435E1,-1.0047914E-3,6.2E0,2.7683259E-3,4.5661928E-4,7.4E0,9.700001E0,5E-1,7.946778E-3,7.919312E-4,-9.040833E-4,1.602173E-5,1.5071869E-3,-2.7694704E-4,-1.8562317E-3,-6.9808964E-5,3.5751343E-3],"split_indices":[2,3,0,2,2,2,2,2,2,0,0,2,2,0,2,0,0,2,2,0,0,0,0,0,0,0,0,0,0],"split_type":[0,0,0,0,0,0,0,0,0,0,0,0,0,0,0,0,0,0,0,0,0,0,0,0,0,0,0,0,0],"sum_hessian":[1.5E1,1.4E1,1E0,9E0,5E0,2E0,7E0,3E0,2E0,1E0,1E0,4E0,3E0,1E0,2E0,1E0,1E0,2E0,2E0,2E0,1E0,1E0,1E0,1E0,1E0,1E0,1E0,1E0,1E0],"tree_param":{"num_deleted":"0","num_feature":"4","num_nodes":"29","size_leaf_vector":"0"}},{"base_weights":[1.628685E-2,1.0516866E-2,5.1418304E-2,1.4580536E-2,1.991272E-3,2.8127035E-2,7.678032E-3,-1.581192E-3,6.0908E-3,4.8828125E-3,3.730774E-2,-6.9274905E-4,1.6222E-2,-2.8457642E-3,-2.1107991E-4,7.843018E-3,1.2931824E-3,2.8762817E-3,-4.0308633E-3,6.6197715E-3,2.2514343E-2,2.243042E-3,-2.5596619E-3,4.5776367E-5,4.2686462E-3,-7.8582764E-4,-5.2604675E-3,-1.9836426E-4,1.0128021E-2],"categories":[],"categories_nodes":[],"categories_segments":[],"categories_sizes":[],"default_left":[1,1,0,1,1,1,1,1,1,0,0,1,1,0,1,0,0,1,1,1,0,0,0,0,0,0,0,0,0],"id":34,"left_children":[1,3,-1,5,7,9,11,13,15,-1,-1,17,19,-1,21,-1,-1,23,25,27,-1,-1,-1,-1,-1,-1,-1,-1,-1],"loss_changes":[2.7025673E-3,4.9064425E-4,0E0,7.190872E-4,9.750322E-5,4.580284E-4,5.833953E-4,6.3297393E-6,1.5076956E-5,0E0,0E0,7.116306E-5,9.2642265E-5,0E0,2.3032548E-5,0E0,0E0,1.16278825E-5,7.836508E-6,7.376821E-5,0E0,0E0,0E0,0E0,0E0,0E0,0E0,0E0,0E0],"parents":[2147483647,0,0,1,1,3,3,4,4,5,5,6,6,7,7,8,8,11,11,12,12,14,14,17,17,18,18,19,19],"right_children":[2,4,-1,6,8,10,12,14,16,-1,-1,18,20,-1,22,-1,-1,24,26,28,-1,-1,-1,-1,-1,-1,-1,-1,-1],"split_conditions":[1.78E1,6.5E0,1.5425492E-2,6.05E0,9.4E0,4.3E0,1.13E1,3.75E0,1.385E1,1.4648438E-3,1.1192322E-2,8.700001E0,1.435E1,-8.5372926E-4,6.2E0,2.3529055E-3,3.8795473E-4,7.4E0,9.700001E0,5E-1,6.7543034E-3,6.7291263E-4,-7.678986E-4,1.3732911E-5,1.2805939E-3,-2.357483E-4,-1.5781403E-3,-5.950928E-5,3.0384066E-3],"split_indices":[2,3,0,2,2,2,2,2,2,0,0,2,2,0,2,0,0,2,2,0,0,0,0,0,0,0,0,0,0],"split_type":[0,0,0,0,0,0,0,0,0,0,0,0,0,0,0,0,0,0,0,0,0,0,0,0,0,0,0,0,0],"sum_hessian":[1.5E1,1.4E1,1E0,9E0,5E0,2E0,7E0,3E0,2E0,1E0,1E0,4E0,3E0,1E0,2E0,1E0,1E0,2E0,2E0,2E0,1E0,1E0,1E0,1E0,1E0,1E0,1E0,1E0,1E0],"tree_param":{"num_deleted":"0","num_feature":"4","num_nodes":"29","size_leaf_vector":"0"}},{"base_weights":[1.384449E-2,8.940125E-3,4.3704987E-2,1.2393951E-2,1.6937256E-3,2.390798E-2,6.526947E-3,-1.3427734E-3,5.177816E-3,4.1503906E-3,3.171158E-2,-5.8898923E-4,1.3790131E-2,-2.418518E-3,-1.7801921E-4,6.668091E-3,1.0986328E-3,2.4439495E-3,-3.4255981E-3,5.62795E-3,1.9138336E-2,1.9073486E-3,-2.1743774E-3,3.8146973E-5,3.627777E-3,-6.67572E-4,-4.470825E-3,-1.6784668E-4,8.609772E-3],"categories":[],"categories_nodes":[],"categories_segments":[],"categories_sizes":[],"default_left":[1,1,0,1,1,1,1,1,1,0,0,1,1,0,1,0,0,1,1,1,0,0,0,0,0,0,0,0,0],"id":35,"left_children":[1,3,-1,5,7,9,11,13,15,-1,-1,17,19,-1,21,-1,-1,23,25,27,-1,-1,-1,-1,-1,-1,-1,-1,-1],"loss_changes":[1.9524205E-3,3.5442517E-4,0E0,5.194822E-4,7.0429254E-5,3.3092545E-4,4.2159704E-4,4.5813695E-6,1.0911528E-5,0E0,0E0,5.1388295E-5,6.690243E-5,0E0,1.6636719E-5,0E0,0E0,8.405777E-6,5.6636927E-6,5.3291216E-5,0E0,0E0,0E0,0E0,0E0,0E0,0E0,0E0,0E0],"parents":[2147483647,0,0,1,1,3,3,4,4,5,5,6,6,7,7,8,8,11,11,12,12,14,14,17,17,18,18,19,19],"right_children":[2,4,-1,6,8,10,12,14,16,-1,-1,18,20,-1,22,-1,-1,24,26,28,-1,-1,-1,-1,-1,-1,-1,-1,-1],"split_conditions":[1.78E1,6.5E0,1.3111496E-2,6.05E0,9.4E0,4.3E0,1.13E1,3.75E0,1.385E1,1.2451173E-3,9.513474E-3,8.700001E0,1.435E1,-7.2555547E-4,6.2E0,2.0004273E-3,3.2958985E-4,7.4E0,9.700001E0,5E-1,5.741501E-3,5.722046E-4,-6.5231323E-4,1.1444092E-5,1.0883332E-3,-2.0027162E-4,-1.3412476E-3,-5.0354007E-5,2.5829317E-3],"split_indices":[2,3,0,2,2,2,2,2,2,0,0,2,2,0,2,0,0,2,2,0,0,0,0,0,0,0,0,0,0],"split_type":[0,0,0,0,0,0,0,0,0,0,0,0,0,0,0,0,0,0,0,0,0,0,0,0,0,0,0,0,0],"sum_hessian":[1.5E1,1.4E1,1E0,9E0,5E0,2E0,7E0,3E0,2E0,1E0,1E0,4E0,3E0,1E0,2E0,1E0,1E0,2E0,2E0,2E0,1E0,1E0,1E0,1E0,1E0,1E0,1E0,1E0,1E0],"tree_param":{"num_deleted":"0","num_feature":"4","num_nodes":"29","size_leaf_vector":"0"}},{"base_weights":[1.1767387E-2,7.598877E-3,3.7147522E-2,1.0533905E-2,1.440684E-3,2.0322165E-2,5.54657E-3,-1.1405945E-3,4.4021606E-3,3.528595E-3,2.695465E-2,-5.020142E-4,1.1720657E-2,-2.0561218E-3,-1.5004475E-4,5.66864E-3,9.3460083E-4,2.0751953E-3,-2.9118855E-3,4.7836304E-3,1.626587E-2,1.6212463E-3,-1.8463135E-3,3.0517578E-5,3.0822754E-3,-5.683899E-4,-3.7994385E-3,-1.411438E-4,7.3165894E-3],"categories":[],"categories_nodes":[],"categories_segments":[],"categories_sizes":[],"default_left":[1,1,0,1,1,1,1,1,1,0,0,1,1,0,1,0,0,1,1,1,0,0,0,0,0,0,0,0,0],"id":36,"left_children":[1,3,-1,5,7,9,11,13,15,-1,-1,17,19,-1,21,-1,-1,23,25,27,-1,-1,-1,-1,-1,-1,-1,-1,-1],"loss_changes":[1.410478E-3,2.5594095E-4,0E0,3.75455E-4,5.0887455E-5,2.3903733E-4,3.046398E-4,3.3189908E-6,7.876864E-6,0E0,0E0,3.709645E-5,4.8311136E-5,0E0,1.2007086E-5,0E0,0E0,6.083399E-6,4.080366E-6,3.8455444E-5,0E0,0E0,0E0,0E0,0E0,0E0,0E0,0E0,0E0],"parents":[2147483647,0,0,1,1,3,3,4,4,5,5,6,6,7,7,8,8,11,11,12,12,14,14,17,17,18,18,19,19],"right_children":[2,4,-1,6,8,10,12,14,16,-1,-1,18,20,-1,22,-1,-1,24,26,28,-1,-1,-1,-1,-1,-1,-1,-1,-1],"split_conditions":[1.78E1,6.5E0,1.1144257E-2,6.05E0,9.4E0,4.3E0,1.13E1,3.75E0,1.385E1,1.0585785E-3,8.086395E-3,8.700001E0,1.435E1,-6.168366E-4,6.2E0,1.7005921E-3,2.8038025E-4,7.4E0,9.700001E0,5E-1,4.879761E-3,4.8637393E-4,-5.538941E-4,9.155274E-6,9.2468265E-4,-1.7051697E-4,-1.1398316E-3,-4.234314E-5,2.194977E-3],"split_indices":[2,3,0,2,2,2,2,2,2,0,0,2,2,0,2,0,0,2,2,0,0,0,0,0,0,0,0,0,0],"split_type":[0,0,0,0,0,0,0,0,0,0,0,0,0,0,0,0,0,0,0,0,0,0,0,0,0,0,0,0,0],"sum_hessian":[1.5E1,1.4E1,1E0,9E0,5E0,2E0,7E0,3E0,2E0,1E0,1E0,4E0,3E0,1E0,2E0,1E0,1E0,2E0,2E0,2E0,1E0,1E0,1E0,1E0,1E0,1E0,1E0,1E0,1E0],"tree_param":{"num_deleted":"0","num_feature":"4","num_nodes":"29","size_leaf_vector":"0"}},{"base_weights":[1.0001659E-2,6.4585367E-3,3.157425E-2,8.9530945E-3,1.2245178E-3,1.727295E-2,4.714012E-3,-9.689331E-4,3.7409465E-3,2.998352E-3,2.2911072E-2,-4.272461E-4,9.962082E-3,-1.7471313E-3,-1.2715657E-4,4.8179626E-3,7.9345703E-4,1.7649332E-3,-2.47701E-3,4.0664673E-3,1.3824463E-2,1.3771057E-3,-1.5678406E-3,2.670288E-5,2.620697E-3,-4.8446655E-4,-3.2310486E-3,-1.18255615E-4,6.2179565E-3],"categories":[],"categories_nodes":[],"categories_segments":[],"categories_sizes":[],"default_left":[1,1,0,1,1,1,1,1,1,0,0,1,1,0,1,0,0,1,1,1,0,0,0,0,0,0,0,0,0],"id":37,"left_children":[1,3,-1,5,7,9,11,13,15,-1,-1,17,19,-1,21,-1,-1,23,25,27,-1,-1,-1,-1,-1,-1,-1,-1,-1],"loss_changes":[1.0190258E-3,1.8488523E-4,0E0,2.7126062E-4,3.6742702E-5,1.7275033E-4,2.2010971E-4,2.398117E-6,5.7006364E-6,0E0,0E0,2.683901E-5,3.4867728E-5,0E0,8.660582E-6,0E0,0E0,4.392564E-6,2.942028E-6,2.7745467E-5,0E0,0E0,0E0,0E0,0E0,0E0,0E0,0E0,0E0],"parents":[2147483647,0,0,1,1,3,3,4,4,5,5,6,6,7,7,8,8,11,11,12,12,14,14,17,17,18,18,19,19],"right_children":[2,4,-1,6,8,10,12,14,16,-1,-1,18,20,-1,22,-1,-1,24,26,28,-1,-1,-1,-1,-1,-1,-1,-1,-1],"split_conditions":[1.78E1,6.5E0,9.472275E-3,6.05E0,9.4E0,4.3E0,1.13E1,3.75E0,1.385E1,8.995056E-4,6.8733217E-3,8.700001E0,1.435E1,-5.2413944E-4,6.2E0,1.4453889E-3,2.3803712E-4,7.4E0,9.700001E0,5E-1,4.147339E-3,4.1313173E-4,-4.7035218E-4,8.010865E-6,7.8620913E-4,-1.4533997E-4,-9.693146E-4,-3.5476685E-5,1.8653871E-3],"split_indices":[2,3,0,2,2,2,2,2,2,0,0,2,2,0,2,0,0,2,2,0,0,0,0,0,0,0,0,0,0],"split_type":[0,0,0,0,0,0,0,0,0,0,0,0,0,0,0,0,0,0,0,0,0,0,0,0,0,0,0,0,0],"sum_hessian":[1.5E1,1.4E1,1E0,9E0,5E0,2E0,7E0,3E0,2E0,1E0,1E0,4E0,3E0,1E0,2E0,1E0,1E0,2E0,2E0,2E0,1E0,1E0,1E0,1E0,1E0,1E0,1E0,1E0,1E0],"tree_param":{"num_deleted":"0","num_feature":"4","num_nodes":"29","size_leaf_vector":"0"}},{"base_weights":[8.50153E-3,5.490112E-3,2.6836395E-2,7.6095583E-3,1.042684E-3,1.46814985E-2,4.006386E-3,-8.2206726E-4,3.1814575E-3,2.5482178E-3,1.947403E-2,-3.6315917E-4,8.466721E-3,-1.4839172E-3,-1.0681152E-4,4.096985E-3,6.752014E-4,1.5004476E-3,-2.105713E-3,3.4561157E-3,1.1749268E-2,1.1711121E-3,-1.3313293E-3,2.2888184E-5,2.2277832E-3,-4.119873E-4,-2.746582E-3,-9.918213E-5,5.2833557E-3],"categories":[],"categories_nodes":[],"categories_segments":[],"categories_sizes":[],"default_left":[1,1,0,1,1,1,1,1,1,0,0,1,1,0,1,0,0,1,1,1,0,0,0,0,0,0,0,0,0],"id":38,"left_children":[1,3,-1,5,7,9,11,13,15,-1,-1,17,19,-1,21,-1,-1,23,25,27,-1,-1,-1,-1,-1,-1,-1,-1,-1],"loss_changes":[7.36088E-4,1.334569E-4,0E0,1.9599445E-4,2.6545056E-5,1.248233E-4,1.5899184E-4,1.7350685E-6,4.117348E-6,0E0,0E0,1.9396686E-5,2.518337E-5,0E0,6.2536565E-6,0E0,0E0,3.1730547E-6,2.1248125E-6,2.0013162E-5,0E0,0E0,0E0,0E0,0E0,0E0,0E0,0E0,0E0],"parents":[2147483647,0,0,1,1,3,3,4,4,5,5,6,6,7,7,8,8,11,11,12,12,14,14,17,17,18,18,19,19],"right_children":[2,4,-1,6,8,10,12,14,16,-1,-1,18,20,-1,22,-1,-1,24,26,28,-1,-1,-1,-1,-1,-1,-1,-1,-1],"split_conditions":[1.78E1,6.5E0,8.050919E-3,6.05E0,9.4E0,4.3E0,1.13E1,3.75E0,1.385E1,7.6446537E-4,5.842209E-3,8.700001E0,1.435E1,-4.451752E-4,6.2E0,1.2290955E-3,2.0256043E-4,7.4E0,9.700001E0,5E-1,3.5247805E-3,3.5133364E-4,-3.9939882E-4,6.8664554E-6,6.68335E-4,-1.235962E-4,-8.2397467E-4,-2.975464E-5,1.5850068E-3],"split_indices":[2,3,0,2,2,2,2,2,2,0,0,2,2,0,2,0,0,2,2,0,0,0,0,0,0,0,0,0,0],"split_type":[0,0,0,0,0,0,0,0,0,0,0,0,0,0,0,0,0,0,0,0,0,0,0,0,0,0,0,0,0],"sum_hessian":[1.5E1,1.4E1,1E0,9E0,5E0,2E0,7E0,3E0,2E0,1E0,1E0,4E0,3E0,1E0,2E0,1E0,1E0,2E0,2E0,2E0,1E0,1E0,1E0,1E0,1E0,1E0,1E0,1E0,1E0],"tree_param":{"num_deleted":"0","num_feature":"4","num_nodes":"29","size_leaf_vector":"0"}},{"base_weights":[7.2255135E-3,4.665629E-3,2.281189E-2,6.467438E-3,8.8500977E-4,1.2479146E-2,3.4046173E-3,-6.9999695E-4,2.7033489E-3,2.166748E-3,1.6551971E-2,-3.097534E-4,7.1964264E-3,-1.2626648E-3,-9.1552734E-5,3.4828186E-3,5.722046E-4,1.2741089E-3,-1.7903646E-3,2.937317E-3,9.986877E-3,9.95636E-4,-1.1329651E-3,1.9073486E-5,1.8920898E-3,-3.5095215E-4,-2.3345947E-3,-8.392334E-5,4.4898987E-3],"categories":[],"categories_nodes":[],"categories_segments":[],"categories_sizes":[],"default_left":[1,1,0,1,1,1,1,1,1,0,0,1,1,0,1,0,0,1,1,1,0,0,0,0,0,0,0,0,0],"id":39,"left_children":[1,3,-1,5,7,9,11,13,15,-1,-1,17,19,-1,21,-1,-1,23,25,27,-1,-1,-1,-1,-1,-1,-1,-1,-1],"loss_changes":[5.3195737E-4,9.6455566E-5,0E0,1.4164107E-4,1.9184814E-5,9.013782E-5,1.1490259E-4,1.2538076E-6,2.9906023E-6,0E0,0E0,1.400654E-5,1.8204722E-5,0E0,4.524656E-6,0E0,0E0,2.2906752E-6,1.5307842E-6,1.4448975E-5,0E0,0E0,0E0,0E0,0E0,0E0,0E0,0E0,0E0],"parents":[2147483647,0,0,1,1,3,3,4,4,5,5,6,6,7,7,8,8,11,11,12,12,14,14,17,17,18,18,19,19],"right_children":[2,4,-1,6,8,10,12,14,16,-1,-1,18,20,-1,22,-1,-1,24,26,28,-1,-1,-1,-1,-1,-1,-1,-1,-1],"split_conditions":[1.78E1,6.5E0,6.8435674E-3,6.05E0,9.4E0,4.3E0,1.13E1,3.75E0,1.385E1,6.5002445E-4,4.9655917E-3,8.700001E0,1.435E1,-3.7879945E-4,6.2E0,1.0448457E-3,1.7166138E-4,7.4E0,9.700001E0,5E-1,2.9960633E-3,2.986908E-4,-3.3988955E-4,5.722046E-6,5.6762696E-4,-1.05285646E-4,-7.0037844E-4,-2.5177003E-5,1.3469696E-3],"split_indices":[2,3,0,2,2,2,2,2,2,0,0,2,2,0,2,0,0,2,2,0,0,0,0,0,0,0,0,0,0],"split_type":[0,0,0,0,0,0,0,0,0,0,0,0,0,0,0,0,0,0,0,0,0,0,0,0,0,0,0,0,0],"sum_hessian":[1.5E1,1.4E1,1E0,9E0,5E0,2E0,7E0,3E0,2E0,1E0,1E0,4E0,3E0,1E0,2E0,1E0,1E0,2E0,2E0,2E0,1E0,1E0,1E0,1E0,1E0,1E0,1E0,1E0,1E0],"tree_param":{"num_deleted":"0","num_feature":"4","num_nodes":"29","size_leaf_vector":"0"}},{"base_weights":[6.1421394E-3,3.9662677E-3,1.9390106E-2,5.4969788E-3,7.540385E-4,1.0607402E-2,2.8934479E-3,-5.931854E-4,2.298991E-3,1.8424988E-3,1.40686035E-2,-2.6245118E-4,6.1149597E-3,2.960205E-3,4.8828125E-4,1.083374E-3,-1.5207926E-3,2.494812E-3,8.487701E-3,1.5258789E-5,1.6098022E-3,-2.975464E-4,-1.9836426E-3,-7.247925E-5,3.8146973E-3],"categories":[],"categories_nodes":[],"categories_segments":[],"categories_sizes":[],"default_left":[1,1,0,1,1,1,1,0,1,0,0,1,1,0,0,1,1,1,0,0,0,0,0,0,0],"id":40,"left_children":[1,3,-1,5,7,9,11,-1,13,-1,-1,15,17,-1,-1,19,21,23,-1,-1,-1,-1,-1,-1,-1],"loss_changes":[3.8430758E-4,6.9609974E-5,0E0,1.0235945E-4,1.3852109E-5,6.508993E-5,8.2939005E-5,9.0805406E-7,2.1463875E-6,0E0,0E0,1.0115126E-5,1.3183482E-5,0E0,0E0,1.6622944E-6,1.1083125E-6,1.0442076E-5,0E0,0E0,0E0,0E0,0E0,0E0,0E0],"parents":[2147483647,0,0,1,1,3,3,4,4,5,5,6,6,8,8,11,11,12,12,15,15,16,16,17,17],"right_children":[2,4,-1,6,8,10,12,-1,14,-1,-1,16,18,-1,-1,20,22,24,-1,-1,-1,-1,-1,-1,-1],"split_conditions":[1.78E1,6.5E0,5.817032E-3,6.05E0,9.4E0,4.3E0,1.13E1,-1.7795563E-4,1.385E1,5.5274967E-4,4.220581E-3,8.700001E0,1.435E1,8.8806154E-4,1.4648438E-4,7.4E0,9.700001E0,5E-1,2.5463104E-3,4.577637E-6,4.829407E-4,-8.926392E-5,-5.950928E-4,-2.1743776E-5,1.1444092E-3],"split_indices":[2,3,0,2,2,2,2,0,2,0,0,2,2,0,0,2,2,0,0,0,0,0,0,0,0],"split_type":[0,0,0,0,0,0,0,0,0,0,0,0,0,0,0,0,0,0,0,0,0,0,0,0,0],"sum_hessian":[1.5E1,1.4E1,1E0,9E0,5E0,2E0,7E0,3E0,2E0,1E0,1E0,4E0,3E0,1E0,1E0,2E0,2E0,2E0,1E0,1E0,1E0,1E0,1E0,1E0,1E0],"tree_param":{"num_deleted":"0","num_feature":"4","num_nodes":"25","size_leaf_vector":"0"}},{"base_weights":[5.232334E-3,3.3833822E-3,1.6483307E-2,4.673004E-3,6.701152E-4,9.017944E-3,2.459526E-3,-4.6157837E-4,1.9556682E-3,1.5678406E-3,1.1959076E-2,-2.2277833E-4,5.197525E-3,-9.841919E-4,4.0690105E-5,2.5177002E-3,4.15802E-4,9.206136E-4,-1.2919108E-3,2.1209717E-3,7.2135925E-3,9.3460083E-4,-8.735657E-4,1.1444092E-5,1.3694763E-3,-6.1035156E-5,3.2424927E-3],"categories":[],"categories_nodes":[],"categories_segments":[],"categories_sizes":[],"default_left":[1,1,0,1,1,1,1,1,1,0,0,1,1,0,1,0,0,1,0,1,0,0,0,0,0,0,0],"id":41,"left_children":[1,3,-1,5,7,9,11,13,15,-1,-1,17,19,-1,21,-1,-1,23,-1,25,-1,-1,-1,-1,-1,-1,-1],"loss_changes":[2.7707077E-4,4.9354887E-5,0E0,7.399442E-5,9.631805E-6,4.6985282E-5,5.991107E-5,1.090016E-6,1.5494979E-6,0E0,0E0,7.301538E-6,9.510331E-6,0E0,3.2682244E-6,0E0,0E0,1.2086045E-6,8.0551627E-7,7.5394055E-6,0E0,0E0,0E0,0E0,0E0,0E0,0E0],"parents":[2147483647,0,0,1,1,3,3,4,4,5,5,6,6,7,7,8,8,11,11,12,12,14,14,17,17,19,19],"right_children":[2,4,-1,6,8,10,12,14,16,-1,-1,18,20,-1,22,-1,-1,24,-1,26,-1,-1,-1,-1,-1,-1,-1],"split_conditions":[1.78E1,6.5E0,4.9449923E-3,6.05E0,9.4E0,4.3E0,1.13E1,3.75E0,1.385E1,4.7035218E-4,3.587723E-3,8.700001E0,1.435E1,-2.9525757E-4,6.2E0,7.553101E-4,1.247406E-4,7.4E0,-3.8757324E-4,5E-1,2.164078E-3,2.8038025E-4,-2.6206972E-4,3.4332277E-6,4.108429E-4,-1.8310548E-5,9.7274786E-4],"split_indices":[2,3,0,2,2,2,2,2,2,0,0,2,2,0,2,0,0,2,0,0,0,0,0,0,0,0,0],"split_type":[0,0,0,0,0,0,0,0,0,0,0,0,0,0,0,0,0,0,0,0,0,0,0,0,0,0,0],"sum_hessian":[1.5E1,1.4E1,1E0,9E0,5E0,2E0,7E0,3E0,2E0,1E0,1E0,4E0,3E0,1E0,2E0,1E0,1E0,2E0,2E0,2E0,1E0,1E0,1E0,1E0,1E0,1E0,1E0],"tree_param":{"num_deleted":"0","num_feature":"4","num_nodes":"27","size_leaf_vector":"0"}},{"base_weights":[4.459381E-3,2.8884888E-3,1.4011383E-2,3.990936E-3,5.6966144E-4,7.6649985E-3,2.114296E-3,-3.9291382E-4,1.663208E-3,1.3313293E-3,1.0166168E-2,6.6484726E-4,6.1302185E-3,2.1400452E-3,3.5476685E-4,1.9321442E-3,-7.686615E-4,2.6117961E-3,-5.340576E-5,-3.0517578E-5,-1.4915466E-3],"categories":[],"categories_nodes":[],"categories_segments":[],"categories_sizes":[],"default_left":[1,1,0,1,1,1,1,0,1,0,0,1,0,0,0,1,1,0,0,0,0],"id":42,"left_children":[1,3,-1,5,7,9,11,-1,13,-1,-1,15,-1,-1,-1,17,19,-1,-1,-1,-1],"loss_changes":[1.9961095E-4,3.6072306E-5,0E0,5.2742864E-5,6.9692223E-6,3.3990233E-5,4.249133E-5,7.816028E-7,1.112523E-6,0E0,0E0,1.42019335E-5,0E0,0E0,0E0,5.5374167E-6,2.0888547E-6,0E0,0E0,0E0,0E0],"parents":[2147483647,0,0,1,1,3,3,4,4,5,5,6,6,8,8,11,11,15,15,16,16],"right_children":[2,4,-1,6,8,10,12,-1,14,-1,-1,16,-1,-1,-1,18,20,-1,-1,-1,-1],"split_conditions":[1.78E1,6.5E0,4.203415E-3,6.05E0,9.4E0,4.3E0,1.435E1,-1.1787415E-4,1.385E1,3.9939882E-4,3.0498507E-3,5E-1,1.8390656E-3,6.4201356E-4,1.0643006E-4,1.3E1,9.700001E0,7.8353885E-4,-1.602173E-5,-9.155274E-6,-4.47464E-4],"split_indices":[2,3,0,2,2,2,2,0,2,0,0,3,0,0,0,2,2,0,0,0,0],"split_type":[0,0,0,0,0,0,0,0,0,0,0,0,0,0,0,0,0,0,0,0,0],"sum_hessian":[1.5E1,1.4E1,1E0,9E0,5E0,2E0,7E0,3E0,2E0,1E0,1E0,6E0,1E0,1E0,1E0,3E0,3E0,2E0,1E0,2E0,1E0],"tree_param":{"num_deleted":"0","num_feature":"4","num_nodes":"21","size_leaf_vector":"0"}},{"base_weights":[3.7727356E-3,2.43632E-3,1.1909485E-2,3.353119E-3,5.022685E-4,6.515503E-3,1.748085E-3,-3.0708313E-4,1.4139811E-3,1.1329651E-3,8.640289E-3,-2.1362305E-4,3.7631989E-3,3.6621094E-4,-1.2664795E-3,1.5436808E-3,5.2108765E-3,-4.5776367E-5,2.3612976E-3],"categories":[],"categories_nodes":[],"categories_segments":[],"categories_sizes":[],"default_left":[1,1,0,1,1,1,1,0,0,0,0,1,1,0,0,1,0,0,0],"id":43,"left_children":[1,3,-1,5,7,9,11,-1,-1,-1,-1,13,15,-1,-1,17,-1,-1,-1],"loss_changes":[1.4496993E-4,2.4912872E-5,0E0,3.9367682E-5,4.8615866E-6,2.4521083E-5,3.2428426E-5,8.698602E-7,8.055745E-7,0E0,0E0,3.5162084E-6,4.8086586E-6,6.530512E-7,0E0,4.006792E-6,0E0,0E0,0E0],"parents":[2147483647,0,0,1,1,3,3,4,4,5,5,6,6,11,11,12,12,15,15],"right_children":[2,4,-1,6,8,10,12,-1,-1,-1,-1,14,16,-1,-1,18,-1,-1,-1],"split_conditions":[1.78E1,6.5E0,3.5728456E-3,6.05E0,9.4E0,4.3E0,1.13E1,-9.2124945E-5,4.2419435E-4,3.3988955E-4,2.5920868E-3,9.700001E0,1.435E1,1.09863286E-4,-3.7994387E-4,5E-1,1.563263E-3,-1.3732911E-5,7.083893E-4],"split_indices":[2,3,0,2,2,2,2,0,0,0,0,2,2,0,0,0,0,0,0],"split_type":[0,0,0,0,0,0,0,0,0,0,0,0,0,0,0,0,0,0,0],"sum_hessian":[1.5E1,1.4E1,1E0,9E0,5E0,2E0,7E0,3E0,2E0,1E0,1E0,4E0,3E0,3E0,1E0,2E0,1E0,1E0,1E0],"tree_param":{"num_deleted":"0","num_feature":"4","num_nodes":"19","size_leaf_vector":"0"}},{"base_weights":[3.1924248E-3,2.0553588E-3,1.0124207E-2,2.8396607E-3,4.056295E-4,5.5363975E-3,1.4734268E-3,-7.324219E-4,7.797241E-4,9.613037E-4,7.3432922E-3,-2.0141601E-4,3.1986237E-3,-6.4086914E-4,1.2950897E-3,2.861023E-4,-1.0757446E-3,1.3122559E-3,4.4288635E-3,1.6682943E-3,8.773804E-5,-3.8146973E-5,2.0065308E-3],"categories":[],"categories_nodes":[],"categories_segments":[],"categories_sizes":[],"default_left":[1,1,0,1,1,1,1,0,1,0,0,1,1,0,1,0,0,1,0,0,0,0,0],"id":44,"left_children":[1,3,-1,5,7,9,11,-1,13,-1,-1,15,17,-1,19,-1,-1,21,-1,-1,-1,-1,-1],"loss_changes":[1.0530141E-4,1.8256433E-5,0E0,2.8686256E-5,3.1255208E-6,1.7741004E-5,2.3759723E-5,0E0,4.4906074E-6,0E0,0E0,2.439029E-6,3.4709374E-6,0E0,1.6559834E-6,7.29245E-7,0E0,2.8891955E-6,0E0,0E0,0E0,0E0,0E0],"parents":[2147483647,0,0,1,1,3,3,4,4,5,5,6,6,8,8,11,11,12,12,14,14,17,17],"right_children":[2,4,-1,6,8,10,12,-1,14,-1,-1,16,18,-1,20,-1,-1,22,-1,-1,-1,-1,-1],"split_conditions":[1.78E1,6.5E0,3.037262E-3,6.05E0,3.75E0,4.3E0,1.13E1,-2.1972657E-4,7.5E0,2.8839114E-4,2.2029877E-3,9.700001E0,1.435E1,-1.9226075E-4,1.385E1,8.583069E-5,-3.227234E-4,5E-1,1.3286591E-3,5.004883E-4,2.6321411E-5,-1.1444092E-5,6.0195924E-4],"split_indices":[2,3,0,2,2,2,2,0,3,0,0,2,2,0,2,0,0,0,0,0,0,0,0],"split_type":[0,0,0,0,0,0,0,0,0,0,0,0,0,0,0,0,0,0,0,0,0,0,0],"sum_hessian":[1.5E1,1.4E1,1E0,9E0,5E0,2E0,7E0,1E0,4E0,1E0,1E0,4E0,3E0,1E0,3E0,3E0,1E0,2E0,1E0,2E0,1E0,1E0,1E0],"tree_param":{"num_deleted":"0","num_feature":"4","num_nodes":"23","size_leaf_vector":"0"}},{"base_weights":[2.6926994E-3,1.7247518E-3,8.605957E-3,2.405548E-3,3.0263266E-4,4.7047934E-3,1.2426376E-3,-2.6130676E-4,9.536743E-4,8.163452E-4,6.2408447E-3,-1.8768311E-4,2.7198792E-3,6.752014E-4,-5.722046E-4,1.1164347E-3,3.7651062E-3,-3.0517578E-5,1.7051697E-3],"categories":[],"categories_nodes":[],"categories_segments":[],"categories_sizes":[],"default_left":[1,1,0,1,1,1,1,0,0,0,0,1,1,0,0,1,0,0,0],"id":45,"left_children":[1,3,-1,5,7,9,11,-1,-1,-1,-1,13,15,-1,-1,17,-1,-1,-1],"loss_changes":[7.673644E-5,1.37946045E-5,0E0,2.0891814E-5,2.4520898E-6,1.2823883E-5,1.741391E-5,5.132509E-7,9.5096766E-7,0E0,0E0,2.0453415E-6,2.5003574E-6,0E0,4.3655746E-7,2.0777904E-6,0E0,0E0,0E0],"parents":[2147483647,0,0,1,1,3,3,4,4,5,5,6,6,11,11,12,12,15,15],"right_children":[2,4,-1,6,8,10,12,-1,-1,-1,-1,14,16,-1,-1,18,-1,-1,-1],"split_conditions":[1.78E1,6.5E0,2.5817873E-3,6.05E0,9.4E0,4.3E0,1.13E1,-7.839203E-5,2.861023E-4,2.4490358E-4,1.8722535E-3,5E-1,1.435E1,2.0256043E-4,-1.7166138E-4,5E-1,1.1295319E-3,-9.155274E-6,5.115509E-4],"split_indices":[2,3,0,2,2,2,2,0,0,0,0,3,2,0,0,0,0,0,0],"split_type":[0,0,0,0,0,0,0,0,0,0,0,0,0,0,0,0,0,0,0],"sum_hessian":[1.5E1,1.4E1,1E0,9E0,5E0,2E0,7E0,3E0,2E0,1E0,1E0,4E0,3E0,1E0,3E0,2E0,1E0,1E0,1E0],"tree_param":{"num_deleted":"0","num_feature":"4","num_nodes":"19","size_leaf_vector":"0"}},{"base_weights":[2.295494E-3,1.4729818E-3,7.3165894E-3,2.0622252E-3,2.454122E-4,4.0003457E-3,1.077652E-3,6.942749E-4,-4.348755E-4,6.942749E-4,5.306244E-3,-1.2512207E-4,2.3117065E-3,-5.0735474E-4,1.2639364E-3,2.593994E-4,-8.31604E-4,9.485881E-4,3.200531E-3,-2.670288E-5,1.449585E-3],"categories":[],"categories_nodes":[],"categories_segments":[],"categories_sizes":[],"default_left":[1,1,0,1,1,1,1,1,0,0,0,1,1,0,0,0,0,1,0,0,0],"id":46,"left_children":[1,3,-1,5,7,9,11,13,-1,-1,-1,15,17,-1,-1,-1,-1,19,-1,-1,-1],"loss_changes":[5.5301396E-5,1.0343967E-5,0E0,1.4771238E-5,2.1340577E-6,9.268184E-6,1.2163557E-5,3.3793526E-6,1.2337114E-7,0E0,0E0,1.574005E-6,1.8103074E-6,0E0,0E0,3.8948684E-7,0E0,1.5045614E-6,0E0,0E0,0E0],"parents":[2147483647,0,0,1,1,3,3,4,4,5,5,6,6,7,7,11,11,12,12,17,17],"right_children":[2,4,-1,6,8,10,12,14,-1,-1,-1,16,18,-1,-1,-1,-1,20,-1,-1,-1],"split_conditions":[1.78E1,6.5E0,2.194977E-3,6.05E0,9.5E0,4.3E0,1.13E1,7.5E0,-1.3046265E-4,2.0828248E-4,1.5918732E-3,9.700001E0,1.435E1,-1.5220643E-4,3.7918094E-4,7.781983E-5,-2.494812E-4,5E-1,9.6015935E-4,-8.010865E-6,4.3487552E-4],"split_indices":[2,3,0,2,3,2,2,3,0,0,0,2,2,0,0,0,0,0,0,0,0],"split_type":[0,0,0,0,0,0,0,0,0,0,0,0,0,0,0,0,0,0,0,0,0],"sum_hessian":[1.5E1,1.4E1,1E0,9E0,5E0,2E0,7E0,3E0,2E0,1E0,1E0,4E0,3E0,1E0,2E0,3E0,1E0,2E0,1E0,1E0,1E0],"tree_param":{"num_deleted":"0","num_feature":"4","num_nodes":"21","size_leaf_vector":"0"}},{"base_weights":[1.938343E-3,1.238505E-3,6.2179565E-3,1.7456055E-3,1.8692017E-4,3.4001668E-3,9.069443E-4,-2.2888184E-4,6.790161E-4,5.912781E-4,4.508972E-3,-1.20544435E-4,1.964569E-3,5.340576E-4,-4.1770935E-4,8.0617267E-4,2.7198792E-3,-2.2888184E-5,1.2321472E-3],"categories":[],"categories_nodes":[],"categories_segments":[],"categories_sizes":[],"default_left":[1,1,0,1,1,1,1,0,0,0,0,1,1,0,0,1,0,0,0],"id":47,"left_children":[1,3,-1,5,7,9,11,-1,-1,-1,-1,13,15,-1,-1,17,-1,-1,-1],"loss_changes":[4.0219606E-5,7.672597E-6,0E0,1.0792401E-5,1.3831013E-6,6.6774774E-6,8.930398E-6,3.337239E-7,7.07194E-7,0E0,0E0,1.1957047E-6,1.3071021E-6,0E0,3.2058358E-7,1.0876781E-6,0E0,0E0,0E0],"parents":[2147483647,0,0,1,1,3,3,4,4,5,5,6,6,11,11,12,12,15,15],"right_children":[2,4,-1,6,8,10,12,-1,-1,-1,-1,14,16,-1,-1,18,-1,-1,-1],"split_conditions":[1.78E1,6.5E0,1.8653871E-3,6.05E0,9.4E0,4.3E0,1.13E1,-6.866455E-5,2.0370484E-4,1.7738342E-4,1.3526917E-3,5E-1,1.435E1,1.6021729E-4,-1.2531281E-4,5E-1,8.159638E-4,-6.8664554E-6,3.6964417E-4],"split_indices":[2,3,0,2,2,2,2,0,0,0,0,3,2,0,0,0,0,0,0],"split_type":[0,0,0,0,0,0,0,0,0,0,0,0,0,0,0,0,0,0,0],"sum_hessian":[1.5E1,1.4E1,1E0,9E0,5E0,2E0,7E0,3E0,2E0,1E0,1E0,4E0,3E0,1E0,3E0,2E0,1E0,1E0,1E0],"tree_param":{"num_deleted":"0","num_feature":"4","num_nodes":"19","size_leaf_vector":"0"}},{"base_weights":[1.6527176E-3,1.0584514E-3,5.2833557E-3,1.3122559E-3,-3.941854E-4,2.4318695E-3,7.331848E-4,6.866455E-4,3.8337708E-3,-1.9836426E-4,1.7044067E-3,3.229777E-4,-5.3977966E-4],"categories":[],"categories_nodes":[],"categories_segments":[],"categories_sizes":[],"default_left":[1,1,0,1,0,1,1,0,0,1,0,0,0],"id":48,"left_children":[1,3,-1,5,-1,7,9,-1,-1,11,-1,-1,-1],"loss_changes":[2.8928873E-5,6.0475595E-6,0E0,6.645356E-6,2.6086724E-8,7.1540853E-6,9.3855015E-6,0E0,0E0,1.2423019E-6,8.090001E-7,1.0105819E-7,0E0],"parents":[2147483647,0,0,1,1,3,3,5,5,6,6,9,9],"right_children":[2,4,-1,6,-1,8,10,-1,-1,12,-1,-1,-1],"split_conditions":[1.78E1,9.5E0,1.5850068E-3,6.05E0,-1.1825562E-4,5E0,1.055E1,2.0599367E-4,1.1501312E-3,2.5E0,5.1132205E-4,9.689331E-5,-1.619339E-4],"split_indices":[2,3,0,2,0,2,2,0,0,3,0,0,0],"split_type":[0,0,0,0,0,0,0,0,0,0,0,0,0],"sum_hessian":[1.5E1,1.4E1,1E0,1.2E1,2E0,3E0,9E0,2E0,1E0,5E0,4E0,2E0,3E0],"tree_param":{"num_deleted":"0","num_feature":"4","num_nodes":"13","size_leaf_vector":"0"}},{"base_weights":[1.3608932E-3,8.5296633E-4,4.4898987E-3,1.2191773E-3,1.004537E-4,2.438863E-3,6.093979E-4,4.005432E-4,3.2577515E-3,1.0899135E-4,2.0561218E-3,-1.373291E-4,7.9345703E-4,2.1362305E-4,-5.5948895E-4],"categories":[],"categories_nodes":[],"categories_segments":[],"categories_sizes":[],"default_left":[1,1,0,1,0,1,1,0,0,1,0,1,0,0,0],"id":49,"left_children":[1,3,-1,5,-1,7,9,-1,-1,11,-1,13,-1,-1,-1],"loss_changes":[2.1599168E-5,4.0112054E-6,0E0,5.951155E-6,8.267719E-7,3.7025984E-6,5.567502E-6,0E0,0E0,1.28915E-6,0E0,1.008467E-6,0E0,0E0,0E0],"parents":[2147483647,0,0,1,1,3,3,5,5,6,6,9,9,11,11],"right_children":[2,4,-1,6,-1,8,10,-1,-1,12,-1,14,-1,-1,-1],"split_conditions":[1.78E1,6.5E0,1.3469696E-3,6.05E0,3.013611E-5,4.3E0,1.435E1,1.2016297E-4,9.773255E-4,5E-1,6.168366E-4,9.700001E0,2.3803712E-4,6.408692E-5,-1.678467E-4],"split_indices":[2,3,0,2,0,2,2,0,0,0,0,2,0,0,0],"split_type":[0,0,0,0,0,0,0,0,0,0,0,0,0,0,0],"sum_hessian":[1.5E1,1.4E1,1E0,9E0,5E0,2E0,7E0,1E0,1E0,6E0,1E0,5E0,1E0,3E0,2E0],"tree_param":{"num_deleted":"0","num_feature":"4","num_nodes":"15","size_leaf_vector":"0"}}]},"name":"gbtree"},"learner_model_param":{"base_score":"6E1","boost_from_average":"0","num_class":"0","num_feature":"4","num_target":"1"},"objective":{"name":"reg:squarederror","reg_loss_param":{"scale_pos_weight":"1"}}},"version":[1,7,6]}